<?xml version='1.0' encoding='UTF-8'?>
<BIF VERSION="0.3">
  <NETWORK>
    <NAME>unknown</NAME>
    <VARIABLE TYPE="nature">
      <NAME>F1</NAME>
      <OUTCOME>Absent</OUTCOME>
      <OUTCOME>Present</OUTCOME>
      <PROPERTY>weight = None</PROPERTY>
    </VARIABLE>
    <VARIABLE TYPE="nature">
      <NAME>F10</NAME>
      <OUTCOME>Absent</OUTCOME>
      <OUTCOME>Present</OUTCOME>
      <PROPERTY>weight = None</PROPERTY>
    </VARIABLE>
    <VARIABLE TYPE="nature">
      <NAME>F100</NAME>
      <OUTCOME>NA</OUTCOME>
      <OUTCOME>Absent</OUTCOME>
      <OUTCOME>Slight__1_15_</OUTCOME>
      <OUTCOME>Moderate__16_30_</OUTCOME>
      <OUTCOME>Marked___30_</OUTCOME>
      <PROPERTY>weight = None</PROPERTY>
    </VARIABLE>
    <VARIABLE TYPE="nature">
      <NAME>F101</NAME>
      <OUTCOME>NA</OUTCOME>
      <OUTCOME>Some_fusion</OUTCOME>
      <OUTCOME>Form__4_nod_in_4sqcm</OUTCOME>
      <OUTCOME>Form_1_4_nod_in_4sqcm</OUTCOME>
      <OUTCOME>Most_thick___10_cells_</OUTCOME>
      <OUTCOME>Most_completely_encircle</OUTCOME>
      <OUTCOME>Most_partially_encircle</OUTCOME>
      <OUTCOME>Most_absent</OUTCOME>
      <PROPERTY>weight = None</PROPERTY>
    </VARIABLE>
    <VARIABLE TYPE="nature">
      <NAME>F102</NAME>
      <OUTCOME>NA</OUTCOME>
      <OUTCOME>Absent</OUTCOME>
      <OUTCOME>Present</OUTCOME>
      <PROPERTY>weight = None</PROPERTY>
    </VARIABLE>
    <VARIABLE TYPE="nature">
      <NAME>F103</NAME>
      <OUTCOME>NA</OUTCOME>
      <OUTCOME>Almost_all_well_def</OUTCOME>
      <OUTCOME>Both_well_and_poor_def</OUTCOME>
      <OUTCOME>Almost_all_poor_def</OUTCOME>
      <PROPERTY>weight = None</PROPERTY>
    </VARIABLE>
    <VARIABLE TYPE="nature">
      <NAME>F104</NAME>
      <OUTCOME>NA</OUTCOME>
      <OUTCOME>x0_20</OUTCOME>
      <OUTCOME>x21_50</OUTCOME>
      <OUTCOME>x_50</OUTCOME>
      <PROPERTY>weight = None</PROPERTY>
    </VARIABLE>
    <VARIABLE TYPE="nature">
      <NAME>F105</NAME>
      <OUTCOME>NA</OUTCOME>
      <OUTCOME>Absent</OUTCOME>
      <OUTCOME>Present</OUTCOME>
      <PROPERTY>weight = None</PROPERTY>
    </VARIABLE>
    <VARIABLE TYPE="nature">
      <NAME>F106</NAME>
      <OUTCOME>NA</OUTCOME>
      <OUTCOME>Yes</OUTCOME>
      <OUTCOME>Some_similar</OUTCOME>
      <OUTCOME>None_similar</OUTCOME>
      <PROPERTY>weight = None</PROPERTY>
    </VARIABLE>
    <VARIABLE TYPE="nature">
      <NAME>F107</NAME>
      <OUTCOME>NA</OUTCOME>
      <OUTCOME>No</OUTCOME>
      <OUTCOME>Yes</OUTCOME>
      <PROPERTY>weight = None</PROPERTY>
    </VARIABLE>
    <VARIABLE TYPE="nature">
      <NAME>F108</NAME>
      <OUTCOME>Absent</OUTCOME>
      <OUTCOME>Present</OUTCOME>
      <PROPERTY>weight = None</PROPERTY>
    </VARIABLE>
    <VARIABLE TYPE="nature">
      <NAME>F11</NAME>
      <OUTCOME>Absent</OUTCOME>
      <OUTCOME>Rare___3_</OUTCOME>
      <OUTCOME>Present__3_15_</OUTCOME>
      <OUTCOME>Many__16_50_</OUTCOME>
      <OUTCOME>Striking___50_</OUTCOME>
      <PROPERTY>weight = None</PROPERTY>
    </VARIABLE>
    <VARIABLE TYPE="nature">
      <NAME>F12</NAME>
      <OUTCOME>Absent</OUTCOME>
      <OUTCOME>Present</OUTCOME>
      <PROPERTY>weight = None</PROPERTY>
    </VARIABLE>
    <VARIABLE TYPE="nature">
      <NAME>F13</NAME>
      <OUTCOME>Absent</OUTCOME>
      <OUTCOME>Present__1_2_</OUTCOME>
      <OUTCOME>Prominent___2_</OUTCOME>
      <PROPERTY>weight = None</PROPERTY>
    </VARIABLE>
    <VARIABLE TYPE="nature">
      <NAME>F14</NAME>
      <OUTCOME>Absent</OUTCOME>
      <OUTCOME>Present</OUTCOME>
      <PROPERTY>weight = None</PROPERTY>
    </VARIABLE>
    <VARIABLE TYPE="nature">
      <NAME>F15</NAME>
      <OUTCOME>Absent</OUTCOME>
      <OUTCOME>Present</OUTCOME>
      <PROPERTY>weight = None</PROPERTY>
    </VARIABLE>
    <VARIABLE TYPE="nature">
      <NAME>F16</NAME>
      <OUTCOME>Absent</OUTCOME>
      <OUTCOME>Present</OUTCOME>
      <OUTCOME>Prominent</OUTCOME>
      <PROPERTY>weight = None</PROPERTY>
    </VARIABLE>
    <VARIABLE TYPE="nature">
      <NAME>F17</NAME>
      <OUTCOME>Absent</OUTCOME>
      <OUTCOME>Present___5__</OUTCOME>
      <OUTCOME>Prominent___5__</OUTCOME>
      <PROPERTY>weight = None</PROPERTY>
    </VARIABLE>
    <VARIABLE TYPE="nature">
      <NAME>F18</NAME>
      <OUTCOME>NA</OUTCOME>
      <OUTCOME>No</OUTCOME>
      <OUTCOME>Some</OUTCOME>
      <OUTCOME>Many</OUTCOME>
      <PROPERTY>weight = None</PROPERTY>
    </VARIABLE>
    <VARIABLE TYPE="nature">
      <NAME>F19</NAME>
      <OUTCOME>Absent</OUTCOME>
      <OUTCOME>Present___5__</OUTCOME>
      <OUTCOME>Prominent___5__</OUTCOME>
      <PROPERTY>weight = None</PROPERTY>
    </VARIABLE>
    <VARIABLE TYPE="nature">
      <NAME>F2</NAME>
      <OUTCOME>NA</OUTCOME>
      <OUTCOME>No</OUTCOME>
      <OUTCOME>Yes</OUTCOME>
      <PROPERTY>weight = None</PROPERTY>
    </VARIABLE>
    <VARIABLE TYPE="nature">
      <NAME>F20</NAME>
      <OUTCOME>Absent</OUTCOME>
      <OUTCOME>Rare__1_10__</OUTCOME>
      <OUTCOME>Present__11_50__</OUTCOME>
      <OUTCOME>Many__51_70__</OUTCOME>
      <PROPERTY>weight = None</PROPERTY>
    </VARIABLE>
    <VARIABLE TYPE="nature">
      <NAME>F21</NAME>
      <OUTCOME>Absent</OUTCOME>
      <OUTCOME>Present</OUTCOME>
      <OUTCOME>Prominent</OUTCOME>
      <PROPERTY>weight = None</PROPERTY>
    </VARIABLE>
    <VARIABLE TYPE="nature">
      <NAME>F22</NAME>
      <OUTCOME>NA</OUTCOME>
      <OUTCOME>Absent</OUTCOME>
      <OUTCOME>Present</OUTCOME>
      <PROPERTY>weight = None</PROPERTY>
    </VARIABLE>
    <VARIABLE TYPE="nature">
      <NAME>F23</NAME>
      <OUTCOME>Absent</OUTCOME>
      <OUTCOME>Present</OUTCOME>
      <PROPERTY>weight = None</PROPERTY>
    </VARIABLE>
    <VARIABLE TYPE="nature">
      <NAME>F24</NAME>
      <OUTCOME>Absent</OUTCOME>
      <OUTCOME>Present</OUTCOME>
      <PROPERTY>weight = None</PROPERTY>
    </VARIABLE>
    <VARIABLE TYPE="nature">
      <NAME>F25</NAME>
      <OUTCOME>Absent</OUTCOME>
      <OUTCOME>Present__1_5_</OUTCOME>
      <OUTCOME>Prominent___5_</OUTCOME>
      <PROPERTY>weight = None</PROPERTY>
    </VARIABLE>
    <VARIABLE TYPE="nature">
      <NAME>F26</NAME>
      <OUTCOME>Absent</OUTCOME>
      <OUTCOME>Present</OUTCOME>
      <PROPERTY>weight = None</PROPERTY>
    </VARIABLE>
    <VARIABLE TYPE="nature">
      <NAME>F27</NAME>
      <OUTCOME>Absent</OUTCOME>
      <OUTCOME>Present</OUTCOME>
      <PROPERTY>weight = None</PROPERTY>
    </VARIABLE>
    <VARIABLE TYPE="nature">
      <NAME>F28</NAME>
      <OUTCOME>Negative</OUTCOME>
      <OUTCOME>Positive</OUTCOME>
      <PROPERTY>weight = None</PROPERTY>
    </VARIABLE>
    <VARIABLE TYPE="nature">
      <NAME>F29</NAME>
      <OUTCOME>Negative</OUTCOME>
      <OUTCOME>Positive</OUTCOME>
      <PROPERTY>weight = None</PROPERTY>
    </VARIABLE>
    <VARIABLE TYPE="nature">
      <NAME>F3</NAME>
      <OUTCOME>NA</OUTCOME>
      <OUTCOME>No</OUTCOME>
      <OUTCOME>Yes</OUTCOME>
      <PROPERTY>weight = None</PROPERTY>
    </VARIABLE>
    <VARIABLE TYPE="nature">
      <NAME>F30</NAME>
      <OUTCOME>NA</OUTCOME>
      <OUTCOME>No_expansion</OUTCOME>
      <OUTCOME>Sml__each___10__</OUTCOME>
      <OUTCOME>Large_focus_foci</OUTCOME>
      <OUTCOME>Uniform_mild_mod_exp</OUTCOME>
      <OUTCOME>Uniform_marked_exp</OUTCOME>
      <PROPERTY>weight = None</PROPERTY>
    </VARIABLE>
    <VARIABLE TYPE="nature">
      <NAME>F31</NAME>
      <OUTCOME>Absent</OUTCOME>
      <OUTCOME>Present</OUTCOME>
      <PROPERTY>weight = None</PROPERTY>
    </VARIABLE>
    <VARIABLE TYPE="nature">
      <NAME>F32</NAME>
      <OUTCOME>Absent</OUTCOME>
      <OUTCOME>Present</OUTCOME>
      <OUTCOME>Prominent</OUTCOME>
      <PROPERTY>weight = None</PROPERTY>
    </VARIABLE>
    <VARIABLE TYPE="nature">
      <NAME>F33</NAME>
      <OUTCOME>Absent</OUTCOME>
      <OUTCOME>Rare___6_</OUTCOME>
      <OUTCOME>Few__6_25_</OUTCOME>
      <OUTCOME>Many__26_100_</OUTCOME>
      <OUTCOME>Striking___100_</OUTCOME>
      <PROPERTY>weight = None</PROPERTY>
    </VARIABLE>
    <VARIABLE TYPE="nature">
      <NAME>F34</NAME>
      <OUTCOME>Absent</OUTCOME>
      <OUTCOME>Present</OUTCOME>
      <PROPERTY>weight = None</PROPERTY>
    </VARIABLE>
    <VARIABLE TYPE="nature">
      <NAME>F35</NAME>
      <OUTCOME>Absent</OUTCOME>
      <OUTCOME>Rare___6_cells_</OUTCOME>
      <OUTCOME>Few__6_25_cells_</OUTCOME>
      <OUTCOME>Many__26___100_cells_</OUTCOME>
      <OUTCOME>Striking___100_cells_</OUTCOME>
      <OUTCOME>Sheets___50__of_sec_</OUTCOME>
      <PROPERTY>weight = None</PROPERTY>
    </VARIABLE>
    <VARIABLE TYPE="nature">
      <NAME>F36</NAME>
      <OUTCOME>Absent</OUTCOME>
      <OUTCOME>Present__1_5_</OUTCOME>
      <OUTCOME>Prominent___5_</OUTCOME>
      <PROPERTY>weight = None</PROPERTY>
    </VARIABLE>
    <VARIABLE TYPE="nature">
      <NAME>F37</NAME>
      <OUTCOME>Absent</OUTCOME>
      <OUTCOME>Present</OUTCOME>
      <PROPERTY>weight = None</PROPERTY>
    </VARIABLE>
    <VARIABLE TYPE="nature">
      <NAME>F38</NAME>
      <OUTCOME>NA</OUTCOME>
      <OUTCOME>Clumped</OUTCOME>
      <OUTCOME>Vesicular</OUTCOME>
      <OUTCOME>Fine_and_delicate</OUTCOME>
      <OUTCOME>Cartwheel</OUTCOME>
      <PROPERTY>weight = None</PROPERTY>
    </VARIABLE>
    <VARIABLE TYPE="nature">
      <NAME>F39</NAME>
      <OUTCOME>NA</OUTCOME>
      <OUTCOME>Scanty</OUTCOME>
      <OUTCOME>Mod_abund_clear</OUTCOME>
      <OUTCOME>Mod_abund_deep</OUTCOME>
      <PROPERTY>weight = None</PROPERTY>
    </VARIABLE>
    <VARIABLE TYPE="nature">
      <NAME>F4</NAME>
      <OUTCOME>NA</OUTCOME>
      <OUTCOME>No</OUTCOME>
      <OUTCOME>Yes</OUTCOME>
      <PROPERTY>weight = None</PROPERTY>
    </VARIABLE>
    <VARIABLE TYPE="nature">
      <NAME>F40</NAME>
      <OUTCOME>NA</OUTCOME>
      <OUTCOME>Round__most_</OUTCOME>
      <OUTCOME>Slightly_irregular__most_</OUTCOME>
      <OUTCOME>Irregular__most_</OUTCOME>
      <OUTCOME>Convoluted__some_</OUTCOME>
      <OUTCOME>Cerebriform__some_</OUTCOME>
      <OUTCOME>Multilobated__some_</OUTCOME>
      <OUTCOME>Mulberry__some_</OUTCOME>
      <PROPERTY>weight = None</PROPERTY>
    </VARIABLE>
    <VARIABLE TYPE="nature">
      <NAME>F41</NAME>
      <OUTCOME>Absent</OUTCOME>
      <OUTCOME>Present</OUTCOME>
      <PROPERTY>weight = None</PROPERTY>
    </VARIABLE>
    <VARIABLE TYPE="nature">
      <NAME>F42</NAME>
      <OUTCOME>NA</OUTCOME>
      <OUTCOME>x_80__6_12u_pr_vr_ns</OUTCOME>
      <OUTCOME>x_80__6_12u_no_pr_vr_ns</OUTCOME>
      <OUTCOME>x_50__13_20u_nucleoli</OUTCOME>
      <OUTCOME>x_50__13_20u_no_nucleoli</OUTCOME>
      <OUTCOME>x_50___20u_nucleoli</OUTCOME>
      <OUTCOME>x_50___20u_no_nucleoli</OUTCOME>
      <OUTCOME>mixed__sml_cl_pr_var_ns</OUTCOME>
      <OUTCOME>mixed__sml_cl_not_pr_vr</OUTCOME>
      <PROPERTY>weight = None</PROPERTY>
    </VARIABLE>
    <VARIABLE TYPE="nature">
      <NAME>F43</NAME>
      <OUTCOME>Absent</OUTCOME>
      <OUTCOME>Present__1_50_</OUTCOME>
      <OUTCOME>Prominent___50_</OUTCOME>
      <PROPERTY>weight = None</PROPERTY>
    </VARIABLE>
    <VARIABLE TYPE="nature">
      <NAME>F44</NAME>
      <OUTCOME>Absent</OUTCOME>
      <OUTCOME>Present</OUTCOME>
      <PROPERTY>weight = None</PROPERTY>
    </VARIABLE>
    <VARIABLE TYPE="nature">
      <NAME>F45</NAME>
      <OUTCOME>Absent</OUTCOME>
      <OUTCOME>Present</OUTCOME>
      <PROPERTY>weight = None</PROPERTY>
    </VARIABLE>
    <VARIABLE TYPE="nature">
      <NAME>F46</NAME>
      <OUTCOME>x0_5</OUTCOME>
      <OUTCOME>x6_15</OUTCOME>
      <OUTCOME>x16_50</OUTCOME>
      <OUTCOME>x_50</OUTCOME>
      <PROPERTY>weight = None</PROPERTY>
    </VARIABLE>
    <VARIABLE TYPE="nature">
      <NAME>F47</NAME>
      <OUTCOME>NA</OUTCOME>
      <OUTCOME>Clumped</OUTCOME>
      <OUTCOME>Vesicular</OUTCOME>
      <OUTCOME>Fine_and_delicate</OUTCOME>
      <OUTCOME>Cartwheel</OUTCOME>
      <PROPERTY>weight = None</PROPERTY>
    </VARIABLE>
    <VARIABLE TYPE="nature">
      <NAME>F48</NAME>
      <OUTCOME>NA</OUTCOME>
      <OUTCOME>Scanty</OUTCOME>
      <OUTCOME>Mod_abund_clear</OUTCOME>
      <OUTCOME>Mod_abund_deep</OUTCOME>
      <PROPERTY>weight = None</PROPERTY>
    </VARIABLE>
    <VARIABLE TYPE="nature">
      <NAME>F49</NAME>
      <OUTCOME>NA</OUTCOME>
      <OUTCOME>Round</OUTCOME>
      <OUTCOME>Slightly_irregular</OUTCOME>
      <OUTCOME>Irregular</OUTCOME>
      <OUTCOME>Convoluted</OUTCOME>
      <OUTCOME>Cerebriform</OUTCOME>
      <OUTCOME>Multilobulated</OUTCOME>
      <PROPERTY>weight = None</PROPERTY>
    </VARIABLE>
    <VARIABLE TYPE="nature">
      <NAME>F5</NAME>
      <OUTCOME>NA</OUTCOME>
      <OUTCOME>None</OUTCOME>
      <OUTCOME>One</OUTCOME>
      <OUTCOME>More_than_one</OUTCOME>
      <PROPERTY>weight = None</PROPERTY>
    </VARIABLE>
    <VARIABLE TYPE="nature">
      <NAME>F50</NAME>
      <OUTCOME>NA</OUTCOME>
      <OUTCOME>No_nucleoli</OUTCOME>
      <OUTCOME>x1_small</OUTCOME>
      <OUTCOME>x1_prominent__central_</OUTCOME>
      <OUTCOME>x_1_central</OUTCOME>
      <OUTCOME>x_1_peripheral</OUTCOME>
      <PROPERTY>weight = None</PROPERTY>
    </VARIABLE>
    <VARIABLE TYPE="nature">
      <NAME>F51</NAME>
      <OUTCOME>Absent</OUTCOME>
      <OUTCOME>Present___5__</OUTCOME>
      <OUTCOME>Prominent__5_50__</OUTCOME>
      <OUTCOME>Confluence___50__</OUTCOME>
      <PROPERTY>weight = None</PROPERTY>
    </VARIABLE>
    <VARIABLE TYPE="nature">
      <NAME>F52</NAME>
      <OUTCOME>Absent</OUTCOME>
      <OUTCOME>Rare___3_</OUTCOME>
      <OUTCOME>Present__3_20_</OUTCOME>
      <OUTCOME>Many___20_</OUTCOME>
      <PROPERTY>weight = None</PROPERTY>
    </VARIABLE>
    <VARIABLE TYPE="nature">
      <NAME>F53</NAME>
      <OUTCOME>Absent</OUTCOME>
      <OUTCOME>Focal__non_extensive_</OUTCOME>
      <OUTCOME>Multifocal__non_extensive_</OUTCOME>
      <OUTCOME>Extensive</OUTCOME>
      <PROPERTY>weight = None</PROPERTY>
    </VARIABLE>
    <VARIABLE TYPE="nature">
      <NAME>F54</NAME>
      <OUTCOME>Absent</OUTCOME>
      <OUTCOME>Focal__non_extensive_</OUTCOME>
      <OUTCOME>Multifocal__non_extensive_</OUTCOME>
      <OUTCOME>Extensive</OUTCOME>
      <PROPERTY>weight = None</PROPERTY>
    </VARIABLE>
    <VARIABLE TYPE="nature">
      <NAME>F55</NAME>
      <OUTCOME>Absent</OUTCOME>
      <OUTCOME>Rare___3_</OUTCOME>
      <OUTCOME>Present__3_20_</OUTCOME>
      <OUTCOME>Many___20_</OUTCOME>
      <PROPERTY>weight = None</PROPERTY>
    </VARIABLE>
    <VARIABLE TYPE="nature">
      <NAME>F56</NAME>
      <OUTCOME>Absent</OUTCOME>
      <OUTCOME>Focal__non_extensive_</OUTCOME>
      <OUTCOME>Multifocal__non_extensive_</OUTCOME>
      <OUTCOME>Extensive</OUTCOME>
      <PROPERTY>weight = None</PROPERTY>
    </VARIABLE>
    <VARIABLE TYPE="nature">
      <NAME>F57</NAME>
      <OUTCOME>Absent</OUTCOME>
      <OUTCOME>Present</OUTCOME>
      <PROPERTY>weight = None</PROPERTY>
    </VARIABLE>
    <VARIABLE TYPE="nature">
      <NAME>F58</NAME>
      <OUTCOME>Absent</OUTCOME>
      <OUTCOME>Present</OUTCOME>
      <OUTCOME>Prominent</OUTCOME>
      <PROPERTY>weight = None</PROPERTY>
    </VARIABLE>
    <VARIABLE TYPE="nature">
      <NAME>F59</NAME>
      <OUTCOME>Absent</OUTCOME>
      <OUTCOME>Present</OUTCOME>
      <PROPERTY>weight = None</PROPERTY>
    </VARIABLE>
    <VARIABLE TYPE="nature">
      <NAME>F6</NAME>
      <OUTCOME>Absent</OUTCOME>
      <OUTCOME>Slight</OUTCOME>
      <OUTCOME>Moderate</OUTCOME>
      <OUTCOME>Marked</OUTCOME>
      <PROPERTY>weight = None</PROPERTY>
    </VARIABLE>
    <VARIABLE TYPE="nature">
      <NAME>F60</NAME>
      <OUTCOME>Absent</OUTCOME>
      <OUTCOME>Present</OUTCOME>
      <OUTCOME>Prominent</OUTCOME>
      <PROPERTY>weight = None</PROPERTY>
    </VARIABLE>
    <VARIABLE TYPE="nature">
      <NAME>F61</NAME>
      <OUTCOME>Absent</OUTCOME>
      <OUTCOME>Few___5__</OUTCOME>
      <OUTCOME>Moderate__6_20__</OUTCOME>
      <OUTCOME>Marked__21_50__</OUTCOME>
      <OUTCOME>Striking__51_90__</OUTCOME>
      <OUTCOME>Sheets___90__</OUTCOME>
      <PROPERTY>weight = None</PROPERTY>
    </VARIABLE>
    <VARIABLE TYPE="nature">
      <NAME>F62</NAME>
      <OUTCOME>NA</OUTCOME>
      <OUTCOME>Mature</OUTCOME>
      <OUTCOME>Immature</OUTCOME>
      <OUTCOME>Blastic</OUTCOME>
      <OUTCOME>Pleomorphic</OUTCOME>
      <OUTCOME>Mixed</OUTCOME>
      <PROPERTY>weight = None</PROPERTY>
    </VARIABLE>
    <VARIABLE TYPE="nature">
      <NAME>F63</NAME>
      <OUTCOME>Absent</OUTCOME>
      <OUTCOME>Rare___6_</OUTCOME>
      <OUTCOME>Few__6_25_</OUTCOME>
      <OUTCOME>Many__26_100_</OUTCOME>
      <OUTCOME>Striking___100_</OUTCOME>
      <PROPERTY>weight = None</PROPERTY>
    </VARIABLE>
    <VARIABLE TYPE="nature">
      <NAME>F64</NAME>
      <OUTCOME>Absent</OUTCOME>
      <OUTCOME>Present</OUTCOME>
      <PROPERTY>weight = None</PROPERTY>
    </VARIABLE>
    <VARIABLE TYPE="nature">
      <NAME>F65</NAME>
      <OUTCOME>Absent</OUTCOME>
      <OUTCOME>Present</OUTCOME>
      <PROPERTY>weight = None</PROPERTY>
    </VARIABLE>
    <VARIABLE TYPE="nature">
      <NAME>F66</NAME>
      <OUTCOME>Absent</OUTCOME>
      <OUTCOME>Present</OUTCOME>
      <PROPERTY>weight = None</PROPERTY>
    </VARIABLE>
    <VARIABLE TYPE="nature">
      <NAME>F67</NAME>
      <OUTCOME>Absent</OUTCOME>
      <OUTCOME>Present</OUTCOME>
      <PROPERTY>weight = None</PROPERTY>
    </VARIABLE>
    <VARIABLE TYPE="nature">
      <NAME>F68</NAME>
      <OUTCOME>Absent</OUTCOME>
      <OUTCOME>Present</OUTCOME>
      <PROPERTY>weight = None</PROPERTY>
    </VARIABLE>
    <VARIABLE TYPE="nature">
      <NAME>F69</NAME>
      <OUTCOME>Absent</OUTCOME>
      <OUTCOME>Present</OUTCOME>
      <PROPERTY>weight = None</PROPERTY>
    </VARIABLE>
    <VARIABLE TYPE="nature">
      <NAME>F7</NAME>
      <OUTCOME>Absent</OUTCOME>
      <OUTCOME>Rare</OUTCOME>
      <OUTCOME>Focal</OUTCOME>
      <OUTCOME>Multifocal</OUTCOME>
      <OUTCOME>Extensive</OUTCOME>
      <PROPERTY>weight = None</PROPERTY>
    </VARIABLE>
    <VARIABLE TYPE="nature">
      <NAME>F70</NAME>
      <OUTCOME>NA</OUTCOME>
      <OUTCOME>Scanty</OUTCOME>
      <OUTCOME>Mod_abund_clear</OUTCOME>
      <OUTCOME>Mod_abund_deep</OUTCOME>
      <PROPERTY>weight = None</PROPERTY>
    </VARIABLE>
    <VARIABLE TYPE="nature">
      <NAME>F71</NAME>
      <OUTCOME>NA</OUTCOME>
      <OUTCOME>Round</OUTCOME>
      <OUTCOME>Slightly_irregular</OUTCOME>
      <OUTCOME>Irregular</OUTCOME>
      <OUTCOME>Markedly_irregular</OUTCOME>
      <OUTCOME>Convoluted</OUTCOME>
      <OUTCOME>Cerebriform</OUTCOME>
      <OUTCOME>Multilobulated</OUTCOME>
      <PROPERTY>weight = None</PROPERTY>
    </VARIABLE>
    <VARIABLE TYPE="nature">
      <NAME>F72</NAME>
      <OUTCOME>Absent</OUTCOME>
      <OUTCOME>Present</OUTCOME>
      <PROPERTY>weight = None</PROPERTY>
    </VARIABLE>
    <VARIABLE TYPE="nature">
      <NAME>F73</NAME>
      <OUTCOME>Absent</OUTCOME>
      <OUTCOME>Rare___6_</OUTCOME>
      <OUTCOME>Few__6_25_</OUTCOME>
      <OUTCOME>Many__26_100_</OUTCOME>
      <OUTCOME>Striking___100_</OUTCOME>
      <PROPERTY>weight = None</PROPERTY>
    </VARIABLE>
    <VARIABLE TYPE="nature">
      <NAME>F74</NAME>
      <OUTCOME>Distended</OUTCOME>
      <OUTCOME>Patent</OUTCOME>
      <OUTCOME>Part_greatly_obliterated</OUTCOME>
      <OUTCOME>Completely_obliterated</OUTCOME>
      <PROPERTY>weight = None</PROPERTY>
    </VARIABLE>
    <VARIABLE TYPE="nature">
      <NAME>F75</NAME>
      <OUTCOME>No</OUTCOME>
      <OUTCOME>Yes</OUTCOME>
      <PROPERTY>weight = None</PROPERTY>
    </VARIABLE>
    <VARIABLE TYPE="nature">
      <NAME>F76</NAME>
      <OUTCOME>Absent</OUTCOME>
      <OUTCOME>Slight</OUTCOME>
      <OUTCOME>Moderate</OUTCOME>
      <OUTCOME>Marked</OUTCOME>
      <OUTCOME>Pronounced</OUTCOME>
      <PROPERTY>weight = None</PROPERTY>
    </VARIABLE>
    <VARIABLE TYPE="nature">
      <NAME>F77</NAME>
      <OUTCOME>Absent</OUTCOME>
      <OUTCOME>Present</OUTCOME>
      <PROPERTY>weight = None</PROPERTY>
    </VARIABLE>
    <VARIABLE TYPE="nature">
      <NAME>F78</NAME>
      <OUTCOME>NA</OUTCOME>
      <OUTCOME>No</OUTCOME>
      <OUTCOME>Yes</OUTCOME>
      <PROPERTY>weight = None</PROPERTY>
    </VARIABLE>
    <VARIABLE TYPE="nature">
      <NAME>F79</NAME>
      <OUTCOME>Absent</OUTCOME>
      <OUTCOME>Present</OUTCOME>
      <OUTCOME>Prominent</OUTCOME>
      <PROPERTY>weight = None</PROPERTY>
    </VARIABLE>
    <VARIABLE TYPE="nature">
      <NAME>F8</NAME>
      <OUTCOME>Absent_to_slight___5__</OUTCOME>
      <OUTCOME>Moderate__5_50__</OUTCOME>
      <OUTCOME>Marked___50__</OUTCOME>
      <PROPERTY>weight = None</PROPERTY>
    </VARIABLE>
    <VARIABLE TYPE="nature">
      <NAME>F80</NAME>
      <OUTCOME>Absent</OUTCOME>
      <OUTCOME>Present</OUTCOME>
      <PROPERTY>weight = None</PROPERTY>
    </VARIABLE>
    <VARIABLE TYPE="nature">
      <NAME>F81</NAME>
      <OUTCOME>NA</OUTCOME>
      <OUTCOME>Sparse__1_10__</OUTCOME>
      <OUTCOME>Moderate__11_50__</OUTCOME>
      <OUTCOME>Numerous__51_90__</OUTCOME>
      <OUTCOME>Striking___90__</OUTCOME>
      <PROPERTY>weight = None</PROPERTY>
    </VARIABLE>
    <VARIABLE TYPE="nature">
      <NAME>F82</NAME>
      <OUTCOME>NA</OUTCOME>
      <OUTCOME>Sparse___10__</OUTCOME>
      <OUTCOME>Moderate__11_50__</OUTCOME>
      <OUTCOME>Numerous__51_90__</OUTCOME>
      <OUTCOME>Striking___90__</OUTCOME>
      <PROPERTY>weight = None</PROPERTY>
    </VARIABLE>
    <VARIABLE TYPE="nature">
      <NAME>F83</NAME>
      <OUTCOME>NA</OUTCOME>
      <OUTCOME>Sparse___10__</OUTCOME>
      <OUTCOME>Moderate__11_50__</OUTCOME>
      <OUTCOME>Numerous__51_90__</OUTCOME>
      <OUTCOME>Striking___90__</OUTCOME>
      <PROPERTY>weight = None</PROPERTY>
    </VARIABLE>
    <VARIABLE TYPE="nature">
      <NAME>F84</NAME>
      <OUTCOME>Absent</OUTCOME>
      <OUTCOME>Rare__1_10__</OUTCOME>
      <OUTCOME>Present__11_50__</OUTCOME>
      <OUTCOME>Many__51_70__</OUTCOME>
      <PROPERTY>weight = None</PROPERTY>
    </VARIABLE>
    <VARIABLE TYPE="nature">
      <NAME>F85</NAME>
      <OUTCOME>Absent</OUTCOME>
      <OUTCOME>Rare__1_10__</OUTCOME>
      <OUTCOME>Present__11_50__</OUTCOME>
      <OUTCOME>Many__51_70__</OUTCOME>
      <PROPERTY>weight = None</PROPERTY>
    </VARIABLE>
    <VARIABLE TYPE="nature">
      <NAME>F86</NAME>
      <OUTCOME>Absent</OUTCOME>
      <OUTCOME>Rare__1_10__</OUTCOME>
      <OUTCOME>Present__11_50__</OUTCOME>
      <OUTCOME>Many__51_70__</OUTCOME>
      <PROPERTY>weight = None</PROPERTY>
    </VARIABLE>
    <VARIABLE TYPE="nature">
      <NAME>F87</NAME>
      <OUTCOME>Absent</OUTCOME>
      <OUTCOME>Present</OUTCOME>
      <PROPERTY>weight = None</PROPERTY>
    </VARIABLE>
    <VARIABLE TYPE="nature">
      <NAME>F88</NAME>
      <OUTCOME>Absent</OUTCOME>
      <OUTCOME>Present</OUTCOME>
      <PROPERTY>weight = None</PROPERTY>
    </VARIABLE>
    <VARIABLE TYPE="nature">
      <NAME>F89</NAME>
      <OUTCOME>Absent</OUTCOME>
      <OUTCOME>Present</OUTCOME>
      <PROPERTY>weight = None</PROPERTY>
    </VARIABLE>
    <VARIABLE TYPE="nature">
      <NAME>F9</NAME>
      <OUTCOME>Absent</OUTCOME>
      <OUTCOME>Rare</OUTCOME>
      <OUTCOME>Focal_SS_pattern</OUTCOME>
      <OUTCOME>Multifocal_SS_pattern</OUTCOME>
      <OUTCOME>Extensive_SS_pattern</OUTCOME>
      <PROPERTY>weight = None</PROPERTY>
    </VARIABLE>
    <VARIABLE TYPE="nature">
      <NAME>F90</NAME>
      <OUTCOME>Absent</OUTCOME>
      <OUTCOME>Slight___10_</OUTCOME>
      <OUTCOME>Moderate__10_20_</OUTCOME>
      <OUTCOME>Marked___20_</OUTCOME>
      <PROPERTY>weight = None</PROPERTY>
    </VARIABLE>
    <VARIABLE TYPE="nature">
      <NAME>F91</NAME>
      <OUTCOME>Absent</OUTCOME>
      <OUTCOME>Present</OUTCOME>
      <PROPERTY>weight = None</PROPERTY>
    </VARIABLE>
    <VARIABLE TYPE="nature">
      <NAME>F92</NAME>
      <OUTCOME>Absent</OUTCOME>
      <OUTCOME>Present</OUTCOME>
      <PROPERTY>weight = None</PROPERTY>
    </VARIABLE>
    <VARIABLE TYPE="nature">
      <NAME>F93</NAME>
      <OUTCOME>No</OUTCOME>
      <OUTCOME>Yes</OUTCOME>
      <PROPERTY>weight = None</PROPERTY>
    </VARIABLE>
    <VARIABLE TYPE="nature">
      <NAME>F94</NAME>
      <OUTCOME>NA</OUTCOME>
      <OUTCOME>No_nucleoli</OUTCOME>
      <OUTCOME>x1_small</OUTCOME>
      <OUTCOME>x1_prominent__central_</OUTCOME>
      <OUTCOME>x_1_central</OUTCOME>
      <OUTCOME>x_1_peripheral</OUTCOME>
      <PROPERTY>weight = None</PROPERTY>
    </VARIABLE>
    <VARIABLE TYPE="nature">
      <NAME>F95</NAME>
      <OUTCOME>NA</OUTCOME>
      <OUTCOME>Clumped</OUTCOME>
      <OUTCOME>Vesicular</OUTCOME>
      <OUTCOME>Fine_and_delicate</OUTCOME>
      <OUTCOME>Plasmacytoid</OUTCOME>
      <PROPERTY>weight = None</PROPERTY>
    </VARIABLE>
    <VARIABLE TYPE="nature">
      <NAME>F96</NAME>
      <OUTCOME>NA</OUTCOME>
      <OUTCOME>Other</OUTCOME>
      <OUTCOME>LC</OUTCOME>
      <OUTCOME>LNC</OUTCOME>
      <PROPERTY>weight = None</PROPERTY>
    </VARIABLE>
    <VARIABLE TYPE="nature">
      <NAME>F97</NAME>
      <OUTCOME>Absent</OUTCOME>
      <OUTCOME>Present</OUTCOME>
      <PROPERTY>weight = None</PROPERTY>
    </VARIABLE>
    <VARIABLE TYPE="nature">
      <NAME>F98</NAME>
      <OUTCOME>NA</OUTCOME>
      <OUTCOME>x1_25_</OUTCOME>
      <OUTCOME>x25_75_</OUTCOME>
      <OUTCOME>x75_90_</OUTCOME>
      <OUTCOME>x_90_</OUTCOME>
      <PROPERTY>weight = None</PROPERTY>
    </VARIABLE>
    <VARIABLE TYPE="nature">
      <NAME>F99</NAME>
      <OUTCOME>NA</OUTCOME>
      <OUTCOME>Back_to_back</OUTCOME>
      <OUTCOME>Closely_packed</OUTCOME>
      <OUTCOME>Separated</OUTCOME>
      <OUTCOME>Far_apart</OUTCOME>
      <PROPERTY>weight = None</PROPERTY>
    </VARIABLE>
    <VARIABLE TYPE="nature">
      <NAME>Fault</NAME>
      <OUTCOME>AIDS_early</OUTCOME>
      <OUTCOME>AILD</OUTCOME>
      <OUTCOME>ALIP</OUTCOME>
      <OUTCOME>Cat_scratch_disease</OUTCOME>
      <OUTCOME>Dermatopathic_laden</OUTCOME>
      <OUTCOME>Florid_follic_hyperp</OUTCOME>
      <OUTCOME>GLH_hyaline_vacular</OUTCOME>
      <OUTCOME>GLH_plasma_cell_type</OUTCOME>
      <OUTCOME>Granulomatous_laden</OUTCOME>
      <OUTCOME>Histiocytosis_x</OUTCOME>
      <OUTCOME>Infectious_mono</OUTCOME>
      <OUTCOME>Leprosy</OUTCOME>
      <OUTCOME>Lymphangiographic</OUTCOME>
      <OUTCOME>Mantle_zone_hyperl</OUTCOME>
      <OUTCOME>Necrotizing_kikuchi</OUTCOME>
      <OUTCOME>Necrotiz_nonKikuchi</OUTCOME>
      <OUTCOME>Rheumatoid_arthritis</OUTCOME>
      <OUTCOME>Sarcoidosis</OUTCOME>
      <OUTCOME>SHML</OUTCOME>
      <OUTCOME>Sinus_hyperplasia</OUTCOME>
      <OUTCOME>Syphilis</OUTCOME>
      <OUTCOME>Toxoplasmosis</OUTCOME>
      <OUTCOME>Tuberculosis</OUTCOME>
      <OUTCOME>Viral_NOS</OUTCOME>
      <OUTCOME>Whipple_s_disease</OUTCOME>
      <OUTCOME>L_H_nodular_HD</OUTCOME>
      <OUTCOME>L_H_diffuse_HD</OUTCOME>
      <OUTCOME>Nodular_sclerosis</OUTCOME>
      <OUTCOME>Cellular_phase_NSHD</OUTCOME>
      <OUTCOME>Syncytial_NSHD</OUTCOME>
      <OUTCOME>Mixed_cellularity_HD</OUTCOME>
      <OUTCOME>Interfollicular_HD</OUTCOME>
      <OUTCOME>Diffuse_fibrosis_HD</OUTCOME>
      <OUTCOME>Reticular_type_HD</OUTCOME>
      <OUTCOME>Small_cleaved__fol</OUTCOME>
      <OUTCOME>Mixed__fol</OUTCOME>
      <OUTCOME>Large_cell__fol</OUTCOME>
      <OUTCOME>Small_noncleaved_fol</OUTCOME>
      <OUTCOME>Small_lymphocytic</OUTCOME>
      <OUTCOME>Plasmacytoid_lyctic</OUTCOME>
      <OUTCOME>Mantle_zone</OUTCOME>
      <OUTCOME>Small_cleaved__dif</OUTCOME>
      <OUTCOME>Mixed__fcc_dif</OUTCOME>
      <OUTCOME>Large_cell__dif</OUTCOME>
      <OUTCOME>B_immunoblastic</OUTCOME>
      <OUTCOME>T_immunob_mix</OUTCOME>
      <OUTCOME>IBL_like_T_cell_lym</OUTCOME>
      <OUTCOME>Japanese_ATL</OUTCOME>
      <OUTCOME>Lymphoblastic</OUTCOME>
      <OUTCOME>Small_noncleaved_dif</OUTCOME>
      <OUTCOME>True_histiocytic</OUTCOME>
      <OUTCOME>Malig_histiocytosis</OUTCOME>
      <OUTCOME>Multiple_myeloma</OUTCOME>
      <OUTCOME>Mycosis_fungoides</OUTCOME>
      <OUTCOME>AML</OUTCOME>
      <OUTCOME>Hairy_cell_leukemia</OUTCOME>
      <OUTCOME>Carcinoma</OUTCOME>
      <OUTCOME>Melanoma</OUTCOME>
      <OUTCOME>Em_plasmacytoma</OUTCOME>
      <OUTCOME>Kaposis_sarcoma</OUTCOME>
      <OUTCOME>Mast_cell_disease</OUTCOME>
      <OUTCOME>AIDS_involutionary</OUTCOME>
      <OUTCOME>T_immunob_lrg</OUTCOME>
      <PROPERTY>weight = None</PROPERTY>
    </VARIABLE>
    <DEFINITION>
      <FOR>F1</FOR>
      <GIVEN>Fault</GIVEN>
      <TABLE>1.0 0.0 1.0 0.0 1.0 0.0 1.0 0.0 1.0 0.0 1.0 0.0 1.0 0.0 1.0 0.0 1.0 0.0 1.0 0.0 1.0 0.0 1.0 0.0 1.0 0.0 1.0 0.0 1.0 0.0 1.0 0.0 1.0 0.0 1.0 0.0 1.0 0.0 1.0 0.0 1.0 0.0 1.0 0.0 0.1 0.9 1.0 0.0 1.0 0.0 1.0 0.0 1.0 0.0 1.0 0.0 1.0 0.0 1.0 0.0 1.0 0.0 1.0 0.0 1.0 0.0 1.0 0.0 1.0 0.0 1.0 0.0 1.0 0.0 1.0 0.0 1.0 0.0 1.0 0.0 1.0 0.0 1.0 0.0 1.0 0.0 1.0 0.0 1.0 0.0 1.0 0.0 1.0 0.0 1.0 0.0 1.0 0.0 1.0 0.0 1.0 0.0 1.0 0.0 1.0 0.0 1.0 0.0 1.0 0.0 1.0 0.0 1.0 0.0 1.0 0.0 1.0 0.0 1.0 0.0 1.0 0.0 1.0 0.0 1.0 0.0 </TABLE>
    </DEFINITION>
    <DEFINITION>
      <FOR>F10</FOR>
      <GIVEN>Fault</GIVEN>
      <TABLE>1.0 0.0 1.0 0.0 1.0 0.0 1.0 0.0 1.0 0.0 1.0 0.0 1.0 0.0 1.0 0.0 1.0 0.0 1.0 0.0 1.0 0.0 1.0 0.0 1.0 0.0 1.0 0.0 1.0 0.0 1.0 0.0 1.0 0.0 1.0 0.0 1.0 0.0 1.0 0.0 1.0 0.0 1.0 0.0 1.0 0.0 1.0 0.0 1.0 0.0 1.0 0.0 1.0 0.0 1.0 0.0 1.0 0.0 1.0 0.0 1.0 0.0 1.0 0.0 1.0 0.0 1.0 0.0 1.0 0.0 1.0 0.0 1.0 0.0 1.0 0.0 1.0 0.0 1.0 0.0 1.0 0.0 1.0 0.0 1.0 0.0 1.0 0.0 1.0 0.0 1.0 0.0 1.0 0.0 1.0 0.0 1.0 0.0 1.0 0.0 1.0 0.0 1.0 0.0 1.0 0.0 1.0 0.0 1.0 0.0 1.0 0.0 0.0 1.0 1.0 0.0 1.0 0.0 1.0 0.0 1.0 0.0 1.0 0.0 1.0 0.0 </TABLE>
    </DEFINITION>
    <DEFINITION>
      <FOR>F100</FOR>
      <GIVEN>Fault</GIVEN>
      <GIVEN>F97</GIVEN>
      <GIVEN>F4</GIVEN>
      <TABLE>1.0 0.0 0.0 0.0 0.0 1.0 0.0 0.0 0.0 0.0 1.0 0.0 0.0 0.0 0.0 1.0 0.0 0.0 0.0 0.0 0.0 0.94 0.03 0.02 0.01 0.0 0.88 0.06 0.04 0.02 1.0 0.0 0.0 0.0 0.0 1.0 0.0 0.0 0.0 0.0 1.0 0.0 0.0 0.0 0.0 1.0 0.0 0.0 0.0 0.0 0.0 0.99890021 0.0009989 9.989e-05 1e-06 0.0 0.99780283 0.00199561 0.00019956 2e-06 1.0 0.0 0.0 0.0 0.0 1.0 0.0 0.0 0.0 0.0 1.0 0.0 0.0 0.0 0.0 1.0 0.0 0.0 0.0 0.0 0.0 0.96903097 0.01998002 0.00999001 0.000999 0.0 0.93812375 0.03992016 0.01996008 0.00199601 1.0 0.0 0.0 0.0 0.0 1.0 0.0 0.0 0.0 0.0 1.0 0.0 0.0 0.0 0.0 1.0 0.0 0.0 0.0 0.0 0.0 0.96517413 0.0199005 0.00995025 0.00497512 0.0 0.93 0.04 0.02 0.01 1.0 0.0 0.0 0.0 0.0 1.0 0.0 0.0 0.0 0.0 1.0 0.0 0.0 0.0 0.0 1.0 0.0 0.0 0.0 0.0 0.0 0.96517413 0.0199005 0.00995025 0.00497512 0.0 0.93 0.04 0.02 0.01 1.0 0.0 0.0 0.0 0.0 1.0 0.0 0.0 0.0 0.0 1.0 0.0 0.0 0.0 0.0 1.0 0.0 0.0 0.0 0.0 0.0 0.7 0.15 0.1 0.05 0.0 0.4 0.3 0.2 0.1 1.0 0.0 0.0 0.0 0.0 1.0 0.0 0.0 0.0 0.0 1.0 0.0 0.0 0.0 0.0 1.0 0.0 0.0 0.0 0.0 0.0 0.99890021 0.0009989 9.989e-05 1e-06 0.0 0.99780283 0.00199561 0.00019956 2e-06 1.0 0.0 0.0 0.0 0.0 1.0 0.0 0.0 0.0 0.0 1.0 0.0 0.0 0.0 0.0 1.0 0.0 0.0 0.0 0.0 0.0 0.92 0.05 0.02 0.01 0.0 0.84 0.1 0.04 0.02 1.0 0.0 0.0 0.0 0.0 1.0 0.0 0.0 0.0 0.0 1.0 0.0 0.0 0.0 0.0 1.0 0.0 0.0 0.0 0.0 0.0 0.96517413 0.0199005 0.00995025 0.00497512 0.0 0.93 0.04 0.02 0.01 1.0 0.0 0.0 0.0 0.0 1.0 0.0 0.0 0.0 0.0 1.0 0.0 0.0 0.0 0.0 1.0 0.0 0.0 0.0 0.0 0.0 0.96903097 0.01998002 0.00999001 0.000999 0.0 0.93812375 0.03992016 0.01996008 0.00199601 1.0 0.0 0.0 0.0 0.0 1.0 0.0 0.0 0.0 0.0 1.0 0.0 0.0 0.0 0.0 1.0 0.0 0.0 0.0 0.0 0.0 0.96517413 0.0199005 0.00995025 0.00497512 0.0 0.93 0.04 0.02 0.01 1.0 0.0 0.0 0.0 0.0 1.0 0.0 0.0 0.0 0.0 1.0 0.0 0.0 0.0 0.0 1.0 0.0 0.0 0.0 0.0 0.0 0.96903097 0.01998002 0.00999001 0.000999 0.0 0.93812375 0.03992016 0.01996008 0.00199601 1.0 0.0 0.0 0.0 0.0 1.0 0.0 0.0 0.0 0.0 1.0 0.0 0.0 0.0 0.0 1.0 0.0 0.0 0.0 0.0 0.0 0.96903097 0.01998002 0.00999001 0.000999 0.0 0.93812375 0.03992016 0.01996008 0.00199601 1.0 0.0 0.0 0.0 0.0 1.0 0.0 0.0 0.0 0.0 1.0 0.0 0.0 0.0 0.0 1.0 0.0 0.0 0.0 0.0 0.0 0.96903097 0.01998002 0.00999001 0.000999 0.0 0.93812375 0.03992016 0.01996008 0.00199601 1.0 0.0 0.0 0.0 0.0 1.0 0.0 0.0 0.0 0.0 1.0 0.0 0.0 0.0 0.0 1.0 0.0 0.0 0.0 0.0 0.0 0.96517413 0.0199005 0.00995025 0.00497512 0.0 0.93 0.04 0.02 0.01 1.0 0.0 0.0 0.0 0.0 1.0 0.0 0.0 0.0 0.0 1.0 0.0 0.0 0.0 0.0 1.0 0.0 0.0 0.0 0.0 0.0 0.96517413 0.0199005 0.00995025 0.00497512 0.0 0.93 0.04 0.02 0.01 1.0 0.0 0.0 0.0 0.0 1.0 0.0 0.0 0.0 0.0 1.0 0.0 0.0 0.0 0.0 1.0 0.0 0.0 0.0 0.0 0.0 0.92 0.05 0.02 0.01 0.0 0.84 0.1 0.04 0.02 1.0 0.0 0.0 0.0 0.0 1.0 0.0 0.0 0.0 0.0 1.0 0.0 0.0 0.0 0.0 1.0 0.0 0.0 0.0 0.0 0.0 0.96903097 0.01998002 0.00999001 0.000999 0.0 0.93812375 0.03992016 0.01996008 0.00199601 1.0 0.0 0.0 0.0 0.0 1.0 0.0 0.0 0.0 0.0 1.0 0.0 0.0 0.0 0.0 1.0 0.0 0.0 0.0 0.0 0.0 0.96903097 0.01998002 0.00999001 0.000999 0.0 0.93812375 0.03992016 0.01996008 0.00199601 1.0 0.0 0.0 0.0 0.0 1.0 0.0 0.0 0.0 0.0 1.0 0.0 0.0 0.0 0.0 1.0 0.0 0.0 0.0 0.0 0.0 0.96903097 0.01998002 0.00999001 0.000999 0.0 0.93812375 0.03992016 0.01996008 0.00199601 1.0 0.0 0.0 0.0 0.0 1.0 0.0 0.0 0.0 0.0 1.0 0.0 0.0 0.0 0.0 1.0 0.0 0.0 0.0 0.0 0.0 0.99889123 0.00099889 9.989e-05 9.99e-06 0.0 0.99778491 0.00199557 0.00019956 1.996e-05 1.0 0.0 0.0 0.0 0.0 1.0 0.0 0.0 0.0 0.0 1.0 0.0 0.0 0.0 0.0 1.0 0.0 0.0 0.0 0.0 0.0 0.99889123 0.00099889 9.989e-05 9.99e-06 0.0 0.99778491 0.00199557 0.00019956 1.996e-05 1.0 0.0 0.0 0.0 0.0 1.0 0.0 0.0 0.0 0.0 1.0 0.0 0.0 0.0 0.0 1.0 0.0 0.0 0.0 0.0 0.0 0.96903097 0.01998002 0.00999001 0.000999 0.0 0.93812375 0.03992016 0.01996008 0.00199601 1.0 0.0 0.0 0.0 0.0 1.0 0.0 0.0 0.0 0.0 1.0 0.0 0.0 0.0 0.0 1.0 0.0 0.0 0.0 0.0 0.0 0.96517413 0.0199005 0.00995025 0.00497512 0.0 0.93 0.04 0.02 0.01 1.0 0.0 0.0 0.0 0.0 1.0 0.0 0.0 0.0 0.0 1.0 0.0 0.0 0.0 0.0 1.0 0.0 0.0 0.0 0.0 0.0 0.96903097 0.01998002 0.00999001 0.000999 0.0 0.93812375 0.03992016 0.01996008 0.00199601 1.0 0.0 0.0 0.0 0.0 1.0 0.0 0.0 0.0 0.0 1.0 0.0 0.0 0.0 0.0 1.0 0.0 0.0 0.0 0.0 0.0 0.99890021 0.0009989 9.989e-05 1e-06 0.0 0.99780283 0.00199561 0.00019956 2e-06 1.0 0.0 0.0 0.0 0.0 1.0 0.0 0.0 0.0 0.0 1.0 0.0 0.0 0.0 0.0 1.0 0.0 0.0 0.0 0.0 0.0 0.99890021 0.0009989 9.989e-05 1e-06 0.0 0.99780283 0.00199561 0.00019956 2e-06 1.0 0.0 0.0 0.0 0.0 1.0 0.0 0.0 0.0 0.0 1.0 0.0 0.0 0.0 0.0 1.0 0.0 0.0 0.0 0.0 0.0 0.99890021 0.0009989 9.989e-05 1e-06 0.0 0.99780283 0.00199561 0.00019956 2e-06 1.0 0.0 0.0 0.0 0.0 1.0 0.0 0.0 0.0 0.0 1.0 0.0 0.0 0.0 0.0 1.0 0.0 0.0 0.0 0.0 0.0 0.99890021 0.0009989 9.989e-05 1e-06 0.0 0.99780283 0.00199561 0.00019956 2e-06 1.0 0.0 0.0 0.0 0.0 1.0 0.0 0.0 0.0 0.0 1.0 0.0 0.0 0.0 0.0 1.0 0.0 0.0 0.0 0.0 0.0 0.99890021 0.0009989 9.989e-05 1e-06 0.0 0.99780283 0.00199561 0.00019956 2e-06 1.0 0.0 0.0 0.0 0.0 1.0 0.0 0.0 0.0 0.0 1.0 0.0 0.0 0.0 0.0 1.0 0.0 0.0 0.0 0.0 0.0 0.99890021 0.0009989 9.989e-05 1e-06 0.0 0.99780283 0.00199561 0.00019956 2e-06 1.0 0.0 0.0 0.0 0.0 1.0 0.0 0.0 0.0 0.0 1.0 0.0 0.0 0.0 0.0 1.0 0.0 0.0 0.0 0.0 0.0 0.99890021 0.0009989 9.989e-05 1e-06 0.0 0.99780283 0.00199561 0.00019956 2e-06 1.0 0.0 0.0 0.0 0.0 1.0 0.0 0.0 0.0 0.0 1.0 0.0 0.0 0.0 0.0 1.0 0.0 0.0 0.0 0.0 0.0 0.99890021 0.0009989 9.989e-05 1e-06 0.0 0.99780283 0.00199561 0.00019956 2e-06 1.0 0.0 0.0 0.0 0.0 1.0 0.0 0.0 0.0 0.0 1.0 0.0 0.0 0.0 0.0 1.0 0.0 0.0 0.0 0.0 0.0 0.99890021 0.0009989 9.989e-05 1e-06 0.0 0.99780283 0.00199561 0.00019956 2e-06 1.0 0.0 0.0 0.0 0.0 1.0 0.0 0.0 0.0 0.0 1.0 0.0 0.0 0.0 0.0 1.0 0.0 0.0 0.0 0.0 0.0 0.9889122 0.00998901 0.0009989 9.989e-05 0.0 0.97784873 0.0199561 0.00199561 0.00019956 1.0 0.0 0.0 0.0 0.0 1.0 0.0 0.0 0.0 0.0 1.0 0.0 0.0 0.0 0.0 1.0 0.0 0.0 0.0 0.0 0.0 0.9889122 0.00998901 0.0009989 9.989e-05 0.0 0.97784873 0.0199561 0.00199561 0.00019956 1.0 0.0 0.0 0.0 0.0 1.0 0.0 0.0 0.0 0.0 1.0 0.0 0.0 0.0 0.0 1.0 0.0 0.0 0.0 0.0 0.0 0.96517413 0.0199005 0.00995025 0.00497512 0.0 0.93 0.04 0.02 0.01 1.0 0.0 0.0 0.0 0.0 1.0 0.0 0.0 0.0 0.0 1.0 0.0 0.0 0.0 0.0 1.0 0.0 0.0 0.0 0.0 0.0 0.92 0.05 0.02 0.01 0.0 0.84 0.1 0.04 0.02 1.0 0.0 0.0 0.0 0.0 1.0 0.0 0.0 0.0 0.0 1.0 0.0 0.0 0.0 0.0 1.0 0.0 0.0 0.0 0.0 0.0 0.99890021 0.0009989 9.989e-05 1e-06 0.0 0.99780283 0.00199561 0.00019956 2e-06 1.0 0.0 0.0 0.0 0.0 1.0 0.0 0.0 0.0 0.0 1.0 0.0 0.0 0.0 0.0 1.0 0.0 0.0 0.0 0.0 0.0 0.99890021 0.0009989 9.989e-05 1e-06 0.0 0.99780283 0.00199561 0.00019956 2e-06 1.0 0.0 0.0 0.0 0.0 1.0 0.0 0.0 0.0 0.0 1.0 0.0 0.0 0.0 0.0 1.0 0.0 0.0 0.0 0.0 0.0 0.96903097 0.01998002 0.00999001 0.000999 0.0 0.93812375 0.03992016 0.01996008 0.00199601 1.0 0.0 0.0 0.0 0.0 1.0 0.0 0.0 0.0 0.0 1.0 0.0 0.0 0.0 0.0 1.0 0.0 0.0 0.0 0.0 0.0 0.99890021 0.0009989 9.989e-05 1e-06 0.0 0.99780283 0.00199561 0.00019956 2e-06 1.0 0.0 0.0 0.0 0.0 1.0 0.0 0.0 0.0 0.0 1.0 0.0 0.0 0.0 0.0 1.0 0.0 0.0 0.0 0.0 0.0 0.99890021 0.0009989 9.989e-05 1e-06 0.0 0.99780283 0.00199561 0.00019956 2e-06 1.0 0.0 0.0 0.0 0.0 1.0 0.0 0.0 0.0 0.0 1.0 0.0 0.0 0.0 0.0 1.0 0.0 0.0 0.0 0.0 0.0 0.99890021 0.0009989 9.989e-05 1e-06 0.0 0.99780283 0.00199561 0.00019956 2e-06 1.0 0.0 0.0 0.0 0.0 1.0 0.0 0.0 0.0 0.0 1.0 0.0 0.0 0.0 0.0 1.0 0.0 0.0 0.0 0.0 0.0 0.99890021 0.0009989 9.989e-05 1e-06 0.0 0.99780283 0.00199561 0.00019956 2e-06 1.0 0.0 0.0 0.0 0.0 1.0 0.0 0.0 0.0 0.0 1.0 0.0 0.0 0.0 0.0 1.0 0.0 0.0 0.0 0.0 0.0 0.99890021 0.0009989 9.989e-05 1e-06 0.0 0.99780283 0.00199561 0.00019956 2e-06 1.0 0.0 0.0 0.0 0.0 1.0 0.0 0.0 0.0 0.0 1.0 0.0 0.0 0.0 0.0 1.0 0.0 0.0 0.0 0.0 0.0 0.99890021 0.0009989 9.989e-05 1e-06 0.0 0.99780283 0.00199561 0.00019956 2e-06 1.0 0.0 0.0 0.0 0.0 1.0 0.0 0.0 0.0 0.0 1.0 0.0 0.0 0.0 0.0 1.0 0.0 0.0 0.0 0.0 0.0 0.99890021 0.0009989 9.989e-05 1e-06 0.0 0.99780283 0.00199561 0.00019956 2e-06 1.0 0.0 0.0 0.0 0.0 1.0 0.0 0.0 0.0 0.0 1.0 0.0 0.0 0.0 0.0 1.0 0.0 0.0 0.0 0.0 0.0 0.99890021 0.0009989 9.989e-05 1e-06 0.0 0.99780283 0.00199561 0.00019956 2e-06 1.0 0.0 0.0 0.0 0.0 1.0 0.0 0.0 0.0 0.0 1.0 0.0 0.0 0.0 0.0 1.0 0.0 0.0 0.0 0.0 0.0 0.99890021 0.0009989 9.989e-05 1e-06 0.0 0.99780283 0.00199561 0.00019956 2e-06 1.0 0.0 0.0 0.0 0.0 1.0 0.0 0.0 0.0 0.0 1.0 0.0 0.0 0.0 0.0 1.0 0.0 0.0 0.0 0.0 0.0 0.99890021 0.0009989 9.989e-05 1e-06 0.0 0.99780283 0.00199561 0.00019956 2e-06 1.0 0.0 0.0 0.0 0.0 1.0 0.0 0.0 0.0 0.0 1.0 0.0 0.0 0.0 0.0 1.0 0.0 0.0 0.0 0.0 0.0 0.99890021 0.0009989 9.989e-05 1e-06 0.0 0.99780283 0.00199561 0.00019956 2e-06 1.0 0.0 0.0 0.0 0.0 1.0 0.0 0.0 0.0 0.0 1.0 0.0 0.0 0.0 0.0 1.0 0.0 0.0 0.0 0.0 0.0 0.99890021 0.0009989 9.989e-05 1e-06 0.0 0.99780283 0.00199561 0.00019956 2e-06 1.0 0.0 0.0 0.0 0.0 1.0 0.0 0.0 0.0 0.0 1.0 0.0 0.0 0.0 0.0 1.0 0.0 0.0 0.0 0.0 0.0 0.99890021 0.0009989 9.989e-05 1e-06 0.0 0.99780283 0.00199561 0.00019956 2e-06 1.0 0.0 0.0 0.0 0.0 1.0 0.0 0.0 0.0 0.0 1.0 0.0 0.0 0.0 0.0 1.0 0.0 0.0 0.0 0.0 0.0 0.99890021 0.0009989 9.989e-05 1e-06 0.0 0.99780283 0.00199561 0.00019956 2e-06 1.0 0.0 0.0 0.0 0.0 1.0 0.0 0.0 0.0 0.0 1.0 0.0 0.0 0.0 0.0 1.0 0.0 0.0 0.0 0.0 0.0 0.99890021 0.0009989 9.989e-05 1e-06 0.0 0.99780283 0.00199561 0.00019956 2e-06 1.0 0.0 0.0 0.0 0.0 1.0 0.0 0.0 0.0 0.0 1.0 0.0 0.0 0.0 0.0 1.0 0.0 0.0 0.0 0.0 0.0 0.99890021 0.0009989 9.989e-05 1e-06 0.0 0.99780283 0.00199561 0.00019956 2e-06 1.0 0.0 0.0 0.0 0.0 1.0 0.0 0.0 0.0 0.0 1.0 0.0 0.0 0.0 0.0 1.0 0.0 0.0 0.0 0.0 0.0 0.99890021 0.0009989 9.989e-05 1e-06 0.0 0.99780283 0.00199561 0.00019956 2e-06 1.0 0.0 0.0 0.0 0.0 1.0 0.0 0.0 0.0 0.0 1.0 0.0 0.0 0.0 0.0 1.0 0.0 0.0 0.0 0.0 0.0 0.99890021 0.0009989 9.989e-05 1e-06 0.0 0.99780283 0.00199561 0.00019956 2e-06 1.0 0.0 0.0 0.0 0.0 1.0 0.0 0.0 0.0 0.0 1.0 0.0 0.0 0.0 0.0 1.0 0.0 0.0 0.0 0.0 0.0 0.4 0.3 0.2 0.1 0.0 0.4 0.3 0.2 0.1 1.0 0.0 0.0 0.0 0.0 1.0 0.0 0.0 0.0 0.0 1.0 0.0 0.0 0.0 0.0 1.0 0.0 0.0 0.0 0.0 0.0 0.99890021 0.0009989 9.989e-05 1e-06 0.0 0.99780283 0.00199561 0.00019956 2e-06 1.0 0.0 0.0 0.0 0.0 1.0 0.0 0.0 0.0 0.0 1.0 0.0 0.0 0.0 0.0 1.0 0.0 0.0 0.0 0.0 0.0 0.98990101 0.009999 9.999e-05 0.0 0.0 0.97980404 0.019996 0.00019996 0.0 1.0 0.0 0.0 0.0 0.0 1.0 0.0 0.0 0.0 0.0 1.0 0.0 0.0 0.0 0.0 1.0 0.0 0.0 0.0 0.0 0.0 0.99890021 0.0009989 9.989e-05 1e-06 0.0 0.99780283 0.00199561 0.00019956 2e-06 </TABLE>
    </DEFINITION>
    <DEFINITION>
      <FOR>F101</FOR>
      <GIVEN>Fault</GIVEN>
      <GIVEN>F105</GIVEN>
      <TABLE>1.0 0.0 0.0 0.0 0.0 0.0 0.0 0.0 1.0 0.0 0.0 0.0 0.0 0.0 0.0 0.0 0.0 0.0 0.0 0.0 0.0 0.05 0.05 0.9 1.0 0.0 0.0 0.0 0.0 0.0 0.0 0.0 1.0 0.0 0.0 0.0 0.0 0.0 0.0 0.0 0.0 9.989e-05 0.0009989 0.00998901 0.19978024 0.74917591 0.02996704 0.00998901 1.0 0.0 0.0 0.0 0.0 0.0 0.0 0.0 1.0 0.0 0.0 0.0 0.0 0.0 0.0 0.0 0.0 9.989e-05 0.0009989 0.00998901 0.19978024 0.74917591 0.02996704 0.00998901 1.0 0.0 0.0 0.0 0.0 0.0 0.0 0.0 1.0 0.0 0.0 0.0 0.0 0.0 0.0 0.0 0.0 9.989e-05 0.0009989 0.00998901 0.19978024 0.74917591 0.02996704 0.00998901 1.0 0.0 0.0 0.0 0.0 0.0 0.0 0.0 1.0 0.0 0.0 0.0 0.0 0.0 0.0 0.0 0.0 9.989e-05 0.0009989 0.00998901 0.19978024 0.74917591 0.02996704 0.00998901 1.0 0.0 0.0 0.0 0.0 0.0 0.0 0.0 1.0 0.0 0.0 0.0 0.0 0.0 0.0 0.0 0.0 0.0 0.01 0.05 0.01 0.2 0.4 0.33 1.0 0.0 0.0 0.0 0.0 0.0 0.0 0.0 1.0 0.0 0.0 0.0 0.0 0.0 0.0 0.0 0.0 0.05 0.15 0.2 0.6 0.0 0.0 0.0 1.0 0.0 0.0 0.0 0.0 0.0 0.0 0.0 1.0 0.0 0.0 0.0 0.0 0.0 0.0 0.0 0.0 9.989e-05 0.0009989 0.00998901 0.19978024 0.74917591 0.02996704 0.00998901 1.0 0.0 0.0 0.0 0.0 0.0 0.0 0.0 1.0 0.0 0.0 0.0 0.0 0.0 0.0 0.0 0.0 9.989e-05 0.0009989 0.00998901 0.19978024 0.74917591 0.02996704 0.00998901 1.0 0.0 0.0 0.0 0.0 0.0 0.0 0.0 1.0 0.0 0.0 0.0 0.0 0.0 0.0 0.0 0.0 9.989e-05 0.0009989 0.00998901 0.19978024 0.74917591 0.02996704 0.00998901 1.0 0.0 0.0 0.0 0.0 0.0 0.0 0.0 1.0 0.0 0.0 0.0 0.0 0.0 0.0 0.0 0.0 9.989e-05 0.0009989 0.00998901 0.19978024 0.74917591 0.02996704 0.00998901 1.0 0.0 0.0 0.0 0.0 0.0 0.0 0.0 1.0 0.0 0.0 0.0 0.0 0.0 0.0 0.0 0.0 9.989e-05 0.0009989 0.00998901 0.19978024 0.74917591 0.02996704 0.00998901 1.0 0.0 0.0 0.0 0.0 0.0 0.0 0.0 1.0 0.0 0.0 0.0 0.0 0.0 0.0 0.0 0.0 9.989e-05 0.0009989 0.00998901 0.19978024 0.74917591 0.02996704 0.00998901 1.0 0.0 0.0 0.0 0.0 0.0 0.0 0.0 1.0 0.0 0.0 0.0 0.0 0.0 0.0 0.0 0.0 0.01 0.05 0.1 0.84 0.0 0.0 0.0 1.0 0.0 0.0 0.0 0.0 0.0 0.0 0.0 1.0 0.0 0.0 0.0 0.0 0.0 0.0 0.0 0.0 9.989e-05 0.0009989 0.00998901 0.19978024 0.74917591 0.02996704 0.00998901 1.0 0.0 0.0 0.0 0.0 0.0 0.0 0.0 1.0 0.0 0.0 0.0 0.0 0.0 0.0 0.0 0.0 9.989e-05 0.0009989 0.00998901 0.19978024 0.74917591 0.02996704 0.00998901 1.0 0.0 0.0 0.0 0.0 0.0 0.0 0.0 1.0 0.0 0.0 0.0 0.0 0.0 0.0 0.0 0.0 9.989e-05 0.0009989 0.00998901 0.19978024 0.74917591 0.02996704 0.00998901 1.0 0.0 0.0 0.0 0.0 0.0 0.0 0.0 1.0 0.0 0.0 0.0 0.0 0.0 0.0 0.0 0.0 9.989e-05 0.0009989 0.00998901 0.19978024 0.74917591 0.02996704 0.00998901 1.0 0.0 0.0 0.0 0.0 0.0 0.0 0.0 1.0 0.0 0.0 0.0 0.0 0.0 0.0 0.0 0.0 9.989e-05 0.0009989 0.00998901 0.19978024 0.74917591 0.02996704 0.00998901 1.0 0.0 0.0 0.0 0.0 0.0 0.0 0.0 1.0 0.0 0.0 0.0 0.0 0.0 0.0 0.0 0.0 9.989e-05 0.0009989 0.00998901 0.19978024 0.74917591 0.02996704 0.00998901 1.0 0.0 0.0 0.0 0.0 0.0 0.0 0.0 1.0 0.0 0.0 0.0 0.0 0.0 0.0 0.0 0.0 9.989e-05 0.0009989 0.00998901 0.19978024 0.74917591 0.02996704 0.00998901 1.0 0.0 0.0 0.0 0.0 0.0 0.0 0.0 1.0 0.0 0.0 0.0 0.0 0.0 0.0 0.0 0.0 9.989e-05 0.0009989 0.00998901 0.19978024 0.74917591 0.02996704 0.00998901 1.0 0.0 0.0 0.0 0.0 0.0 0.0 0.0 1.0 0.0 0.0 0.0 0.0 0.0 0.0 0.0 0.0 9.989e-05 0.0009989 0.00998901 0.19978024 0.74917591 0.02996704 0.00998901 1.0 0.0 0.0 0.0 0.0 0.0 0.0 0.0 1.0 0.0 0.0 0.0 0.0 0.0 0.0 0.0 0.0 9.989e-05 0.0009989 0.00998901 0.19978024 0.74917591 0.02996704 0.00998901 1.0 0.0 0.0 0.0 0.0 0.0 0.0 0.0 1.0 0.0 0.0 0.0 0.0 0.0 0.0 0.0 0.0 9.989e-05 0.0009989 0.00998901 0.19978024 0.74917591 0.02996704 0.00998901 1.0 0.0 0.0 0.0 0.0 0.0 0.0 0.0 1.0 0.0 0.0 0.0 0.0 0.0 0.0 0.0 0.0 9.989e-05 0.0009989 0.00998901 0.19978024 0.74917591 0.02996704 0.00998901 1.0 0.0 0.0 0.0 0.0 0.0 0.0 0.0 1.0 0.0 0.0 0.0 0.0 0.0 0.0 0.0 0.0 9.989e-05 0.0009989 0.00998901 0.19978024 0.74917591 0.02996704 0.00998901 1.0 0.0 0.0 0.0 0.0 0.0 0.0 0.0 1.0 0.0 0.0 0.0 0.0 0.0 0.0 0.0 0.0 9.989e-05 0.0009989 0.00998901 0.19978024 0.74917591 0.02996704 0.00998901 1.0 0.0 0.0 0.0 0.0 0.0 0.0 0.0 1.0 0.0 0.0 0.0 0.0 0.0 0.0 0.0 0.0 9.989e-05 0.0009989 0.00998901 0.19978024 0.74917591 0.02996704 0.00998901 1.0 0.0 0.0 0.0 0.0 0.0 0.0 0.0 1.0 0.0 0.0 0.0 0.0 0.0 0.0 0.0 0.0 9.989e-05 0.0009989 0.00998901 0.19978024 0.74917591 0.02996704 0.00998901 1.0 0.0 0.0 0.0 0.0 0.0 0.0 0.0 1.0 0.0 0.0 0.0 0.0 0.0 0.0 0.0 0.0 9.989e-05 0.0009989 0.00998901 0.19978024 0.74917591 0.02996704 0.00998901 1.0 0.0 0.0 0.0 0.0 0.0 0.0 0.0 1.0 0.0 0.0 0.0 0.0 0.0 0.0 0.0 0.0 9.989e-05 0.0009989 0.00998901 0.19978024 0.74917591 0.02996704 0.00998901 1.0 0.0 0.0 0.0 0.0 0.0 0.0 0.0 1.0 0.0 0.0 0.0 0.0 0.0 0.0 0.0 0.0 9.989e-05 0.0009989 0.00998901 0.19978024 0.74917591 0.02996704 0.00998901 1.0 0.0 0.0 0.0 0.0 0.0 0.0 0.0 1.0 0.0 0.0 0.0 0.0 0.0 0.0 0.0 0.0 9.989e-05 0.0009989 0.00998901 0.19978024 0.74917591 0.02996704 0.00998901 1.0 0.0 0.0 0.0 0.0 0.0 0.0 0.0 1.0 0.0 0.0 0.0 0.0 0.0 0.0 0.0 0.0 0.0 0.0 0.0 0.0 0.05 0.15 0.8 1.0 0.0 0.0 0.0 0.0 0.0 0.0 0.0 1.0 0.0 0.0 0.0 0.0 0.0 0.0 0.0 0.0 0.0 0.0 0.0 0.0 0.05 0.15 0.8 1.0 0.0 0.0 0.0 0.0 0.0 0.0 0.0 1.0 0.0 0.0 0.0 0.0 0.0 0.0 0.0 0.0 0.0 0.0 0.0 0.0 0.05 0.15 0.8 1.0 0.0 0.0 0.0 0.0 0.0 0.0 0.0 1.0 0.0 0.0 0.0 0.0 0.0 0.0 0.0 0.0 0.0 0.0 0.0 0.0 0.05 0.15 0.8 1.0 0.0 0.0 0.0 0.0 0.0 0.0 0.0 1.0 0.0 0.0 0.0 0.0 0.0 0.0 0.0 0.0 9.989e-05 0.0009989 0.00998901 0.19978024 0.74917591 0.02996704 0.00998901 1.0 0.0 0.0 0.0 0.0 0.0 0.0 0.0 1.0 0.0 0.0 0.0 0.0 0.0 0.0 0.0 0.0 9.989e-05 0.0009989 0.00998901 0.19978024 0.74917591 0.02996704 0.00998901 1.0 0.0 0.0 0.0 0.0 0.0 0.0 0.0 1.0 0.0 0.0 0.0 0.0 0.0 0.0 0.0 0.0 0.2 0.3 0.2 0.3 0.0 0.0 0.0 1.0 0.0 0.0 0.0 0.0 0.0 0.0 0.0 1.0 0.0 0.0 0.0 0.0 0.0 0.0 0.0 0.0 9.989e-05 0.0009989 0.00998901 0.19978024 0.74917591 0.02996704 0.00998901 1.0 0.0 0.0 0.0 0.0 0.0 0.0 0.0 1.0 0.0 0.0 0.0 0.0 0.0 0.0 0.0 0.0 9.989e-05 0.0009989 0.00998901 0.19978024 0.74917591 0.02996704 0.00998901 1.0 0.0 0.0 0.0 0.0 0.0 0.0 0.0 1.0 0.0 0.0 0.0 0.0 0.0 0.0 0.0 0.0 9.989e-05 0.0009989 0.00998901 0.19978024 0.74917591 0.02996704 0.00998901 1.0 0.0 0.0 0.0 0.0 0.0 0.0 0.0 1.0 0.0 0.0 0.0 0.0 0.0 0.0 0.0 0.0 9.989e-05 0.0009989 0.00998901 0.19978024 0.74917591 0.02996704 0.00998901 1.0 0.0 0.0 0.0 0.0 0.0 0.0 0.0 1.0 0.0 0.0 0.0 0.0 0.0 0.0 0.0 0.0 9.989e-05 0.0009989 0.00998901 0.19978024 0.74917591 0.02996704 0.00998901 1.0 0.0 0.0 0.0 0.0 0.0 0.0 0.0 1.0 0.0 0.0 0.0 0.0 0.0 0.0 0.0 0.0 9.989e-05 0.0009989 0.00998901 0.19978024 0.74917591 0.02996704 0.00998901 1.0 0.0 0.0 0.0 0.0 0.0 0.0 0.0 1.0 0.0 0.0 0.0 0.0 0.0 0.0 0.0 0.0 9.989e-05 0.0009989 0.00998901 0.19978024 0.74917591 0.02996704 0.00998901 1.0 0.0 0.0 0.0 0.0 0.0 0.0 0.0 1.0 0.0 0.0 0.0 0.0 0.0 0.0 0.0 0.0 9.989e-05 0.0009989 0.00998901 0.19978024 0.74917591 0.02996704 0.00998901 1.0 0.0 0.0 0.0 0.0 0.0 0.0 0.0 1.0 0.0 0.0 0.0 0.0 0.0 0.0 0.0 0.0 9.989e-05 0.0009989 0.00998901 0.19978024 0.74917591 0.02996704 0.00998901 1.0 0.0 0.0 0.0 0.0 0.0 0.0 0.0 1.0 0.0 0.0 0.0 0.0 0.0 0.0 0.0 0.0 9.989e-05 0.0009989 0.00998901 0.19978024 0.74917591 0.02996704 0.00998901 1.0 0.0 0.0 0.0 0.0 0.0 0.0 0.0 1.0 0.0 0.0 0.0 0.0 0.0 0.0 0.0 0.0 9.989e-05 0.0009989 0.00998901 0.19978024 0.74917591 0.02996704 0.00998901 1.0 0.0 0.0 0.0 0.0 0.0 0.0 0.0 1.0 0.0 0.0 0.0 0.0 0.0 0.0 0.0 0.0 9.989e-05 0.0009989 0.00998901 0.19978024 0.74917591 0.02996704 0.00998901 1.0 0.0 0.0 0.0 0.0 0.0 0.0 0.0 1.0 0.0 0.0 0.0 0.0 0.0 0.0 0.0 0.0 9.989e-05 0.0009989 0.00998901 0.19978024 0.74917591 0.02996704 0.00998901 1.0 0.0 0.0 0.0 0.0 0.0 0.0 0.0 1.0 0.0 0.0 0.0 0.0 0.0 0.0 0.0 0.0 9.989e-05 0.0009989 0.00998901 0.19978024 0.74917591 0.02996704 0.00998901 1.0 0.0 0.0 0.0 0.0 0.0 0.0 0.0 1.0 0.0 0.0 0.0 0.0 0.0 0.0 0.0 0.0 9.989e-05 0.0009989 0.00998901 0.19978024 0.74917591 0.02996704 0.00998901 1.0 0.0 0.0 0.0 0.0 0.0 0.0 0.0 1.0 0.0 0.0 0.0 0.0 0.0 0.0 0.0 0.0 9.989e-05 0.0009989 0.00998901 0.19978024 0.74917591 0.02996704 0.00998901 1.0 0.0 0.0 0.0 0.0 0.0 0.0 0.0 1.0 0.0 0.0 0.0 0.0 0.0 0.0 0.0 0.0 9.989e-05 0.0009989 0.00998901 0.19978024 0.74917591 0.02996704 0.00998901 1.0 0.0 0.0 0.0 0.0 0.0 0.0 0.0 1.0 0.0 0.0 0.0 0.0 0.0 0.0 0.0 0.0 9.989e-05 0.0009989 0.00998901 0.19978024 0.74917591 0.02996704 0.00998901 1.0 0.0 0.0 0.0 0.0 0.0 0.0 0.0 1.0 0.0 0.0 0.0 0.0 0.0 0.0 0.0 0.0 9.989e-05 0.0009989 0.00998901 0.19978024 0.74917591 0.02996704 0.00998901 1.0 0.0 0.0 0.0 0.0 0.0 0.0 0.0 1.0 0.0 0.0 0.0 0.0 0.0 0.0 0.0 0.0 9.989e-05 0.0009989 0.00998901 0.19978024 0.74917591 0.02996704 0.00998901 1.0 0.0 0.0 0.0 0.0 0.0 0.0 0.0 1.0 0.0 0.0 0.0 0.0 0.0 0.0 0.0 0.0 0.0 0.0 0.0 0.0 0.1 0.2 0.7 1.0 0.0 0.0 0.0 0.0 0.0 0.0 0.0 1.0 0.0 0.0 0.0 0.0 0.0 0.0 0.0 0.0 9.989e-05 0.0009989 0.00998901 0.19978024 0.74917591 0.02996704 0.00998901 </TABLE>
    </DEFINITION>
    <DEFINITION>
      <FOR>F102</FOR>
      <GIVEN>Fault</GIVEN>
      <GIVEN>F105</GIVEN>
      <TABLE>1.0 0.0 0.0 1.0 0.0 0.0 0.0 1.0 0.0 1.0 0.0 0.0 1.0 0.0 0.0 0.0 0.99 0.01 1.0 0.0 0.0 1.0 0.0 0.0 0.0 0.99 0.01 1.0 0.0 0.0 1.0 0.0 0.0 0.0 0.99 0.01 1.0 0.0 0.0 1.0 0.0 0.0 0.0 0.99 0.01 1.0 0.0 0.0 1.0 0.0 0.0 0.0 0.99 0.01 1.0 0.0 0.0 1.0 0.0 0.0 0.0 0.99 0.01 1.0 0.0 0.0 1.0 0.0 0.0 0.0 0.99 0.01 1.0 0.0 0.0 1.0 0.0 0.0 0.0 0.99 0.01 1.0 0.0 0.0 1.0 0.0 0.0 0.0 0.99 0.01 1.0 0.0 0.0 1.0 0.0 0.0 0.0 0.99 0.01 1.0 0.0 0.0 1.0 0.0 0.0 0.0 0.99 0.01 1.0 0.0 0.0 1.0 0.0 0.0 0.0 0.99 0.01 1.0 0.0 0.0 1.0 0.0 0.0 0.0 0.9 0.1 1.0 0.0 0.0 1.0 0.0 0.0 0.0 0.99 0.01 1.0 0.0 0.0 1.0 0.0 0.0 0.0 0.99 0.01 1.0 0.0 0.0 1.0 0.0 0.0 0.0 0.99 0.01 1.0 0.0 0.0 1.0 0.0 0.0 0.0 0.99 0.01 1.0 0.0 0.0 1.0 0.0 0.0 0.0 0.99 0.01 1.0 0.0 0.0 1.0 0.0 0.0 0.0 0.99 0.01 1.0 0.0 0.0 1.0 0.0 0.0 0.0 0.99 0.01 1.0 0.0 0.0 1.0 0.0 0.0 0.0 0.99 0.01 1.0 0.0 0.0 1.0 0.0 0.0 0.0 0.99 0.01 1.0 0.0 0.0 1.0 0.0 0.0 0.0 0.99 0.01 1.0 0.0 0.0 1.0 0.0 0.0 0.0 0.99 0.01 1.0 0.0 0.0 1.0 0.0 0.0 0.0 0.99 0.01 1.0 0.0 0.0 1.0 0.0 0.0 0.0 0.99 0.01 1.0 0.0 0.0 1.0 0.0 0.0 0.0 0.99 0.01 1.0 0.0 0.0 1.0 0.0 0.0 0.0 0.99 0.01 1.0 0.0 0.0 1.0 0.0 0.0 0.0 0.99 0.01 1.0 0.0 0.0 1.0 0.0 0.0 0.0 0.99 0.01 1.0 0.0 0.0 1.0 0.0 0.0 0.0 0.99 0.01 1.0 0.0 0.0 1.0 0.0 0.0 0.0 0.99 0.01 1.0 0.0 0.0 1.0 0.0 0.0 0.0 0.99 0.01 1.0 0.0 0.0 1.0 0.0 0.0 0.0 0.99999 1e-05 1.0 0.0 0.0 1.0 0.0 0.0 0.0 0.99999 1e-05 1.0 0.0 0.0 1.0 0.0 0.0 0.0 1.0 0.0 1.0 0.0 0.0 1.0 0.0 0.0 0.0 1.0 0.0 1.0 0.0 0.0 1.0 0.0 0.0 0.0 0.99 0.01 1.0 0.0 0.0 1.0 0.0 0.0 0.0 0.99 0.01 1.0 0.0 0.0 1.0 0.0 0.0 0.0 1.0 0.0 1.0 0.0 0.0 1.0 0.0 0.0 0.0 0.99 0.01 1.0 0.0 0.0 1.0 0.0 0.0 0.0 0.99 0.01 1.0 0.0 0.0 1.0 0.0 0.0 0.0 0.99 0.01 1.0 0.0 0.0 1.0 0.0 0.0 0.0 0.99 0.01 1.0 0.0 0.0 1.0 0.0 0.0 0.0 0.99 0.01 1.0 0.0 0.0 1.0 0.0 0.0 0.0 0.99 0.01 1.0 0.0 0.0 1.0 0.0 0.0 0.0 0.99 0.01 1.0 0.0 0.0 1.0 0.0 0.0 0.0 0.99 0.01 1.0 0.0 0.0 1.0 0.0 0.0 0.0 0.99 0.01 1.0 0.0 0.0 1.0 0.0 0.0 0.0 0.99 0.01 1.0 0.0 0.0 1.0 0.0 0.0 0.0 0.99 0.01 1.0 0.0 0.0 1.0 0.0 0.0 0.0 0.99 0.01 1.0 0.0 0.0 1.0 0.0 0.0 0.0 0.99 0.01 1.0 0.0 0.0 1.0 0.0 0.0 0.0 0.99 0.01 1.0 0.0 0.0 1.0 0.0 0.0 0.0 0.99 0.01 1.0 0.0 0.0 1.0 0.0 0.0 0.0 0.99 0.01 1.0 0.0 0.0 1.0 0.0 0.0 0.0 0.99 0.01 1.0 0.0 0.0 1.0 0.0 0.0 0.0 0.99 0.01 1.0 0.0 0.0 1.0 0.0 0.0 0.0 0.99 0.01 1.0 0.0 0.0 1.0 0.0 0.0 0.0 0.99 0.01 1.0 0.0 0.0 1.0 0.0 0.0 0.0 1.0 0.0 1.0 0.0 0.0 1.0 0.0 0.0 0.0 0.99 0.01 </TABLE>
    </DEFINITION>
    <DEFINITION>
      <FOR>F103</FOR>
      <GIVEN>Fault</GIVEN>
      <GIVEN>F97</GIVEN>
      <TABLE>1.0 0.0 0.0 0.0 0.0 0.75 0.23 0.02 1.0 0.0 0.0 0.0 0.0 0.65 0.3 0.05 1.0 0.0 0.0 0.0 0.0 0.65 0.3 0.05 1.0 0.0 0.0 0.0 0.0 0.65 0.3 0.05 1.0 0.0 0.0 0.0 0.0 0.65 0.3 0.05 1.0 0.0 0.0 0.0 0.0 0.65 0.3 0.05 1.0 0.0 0.0 0.0 0.0 0.65 0.3 0.05 1.0 0.0 0.0 0.0 0.0 0.65 0.3 0.05 1.0 0.0 0.0 0.0 0.0 0.65 0.3 0.05 1.0 0.0 0.0 0.0 0.0 0.65 0.3 0.05 1.0 0.0 0.0 0.0 0.0 0.65 0.3 0.05 1.0 0.0 0.0 0.0 0.0 0.65 0.3 0.05 1.0 0.0 0.0 0.0 0.0 0.65 0.3 0.05 1.0 0.0 0.0 0.0 0.0 0.65 0.3 0.05 1.0 0.0 0.0 0.0 0.0 0.65 0.3 0.05 1.0 0.0 0.0 0.0 0.0 0.65 0.3 0.05 1.0 0.0 0.0 0.0 0.0 0.65 0.3 0.05 1.0 0.0 0.0 0.0 0.0 0.65 0.3 0.05 1.0 0.0 0.0 0.0 0.0 0.65 0.3 0.05 1.0 0.0 0.0 0.0 0.0 0.65 0.3 0.05 1.0 0.0 0.0 0.0 0.0 0.65 0.3 0.05 1.0 0.0 0.0 0.0 0.0 0.65 0.3 0.05 1.0 0.0 0.0 0.0 0.0 0.65 0.3 0.05 1.0 0.0 0.0 0.0 0.0 0.65 0.3 0.05 1.0 0.0 0.0 0.0 0.0 0.65 0.3 0.05 1.0 0.0 0.0 0.0 0.0 0.65 0.3 0.05 1.0 0.0 0.0 0.0 0.0 0.65 0.3 0.05 1.0 0.0 0.0 0.0 0.0 0.65 0.3 0.05 1.0 0.0 0.0 0.0 0.0 0.65 0.3 0.05 1.0 0.0 0.0 0.0 0.0 0.65 0.3 0.05 1.0 0.0 0.0 0.0 0.0 0.65 0.3 0.05 1.0 0.0 0.0 0.0 0.0 0.65 0.3 0.05 1.0 0.0 0.0 0.0 0.0 0.65 0.3 0.05 1.0 0.0 0.0 0.0 0.0 0.65 0.3 0.05 1.0 0.0 0.0 0.0 0.0 0.05 0.25 0.7 1.0 0.0 0.0 0.0 0.0 0.05 0.25 0.7 1.0 0.0 0.0 0.0 0.0 0.05 0.25 0.7 1.0 0.0 0.0 0.0 0.0 0.05 0.25 0.7 1.0 0.0 0.0 0.0 0.0 0.65 0.3 0.05 1.0 0.0 0.0 0.0 0.0 0.65 0.3 0.05 1.0 0.0 0.0 0.0 0.0 0.65 0.3 0.05 1.0 0.0 0.0 0.0 0.0 0.65 0.3 0.05 1.0 0.0 0.0 0.0 0.0 0.65 0.3 0.05 1.0 0.0 0.0 0.0 0.0 0.65 0.3 0.05 1.0 0.0 0.0 0.0 0.0 0.65 0.3 0.05 1.0 0.0 0.0 0.0 0.0 0.65 0.3 0.05 1.0 0.0 0.0 0.0 0.0 0.65 0.3 0.05 1.0 0.0 0.0 0.0 0.0 0.65 0.3 0.05 1.0 0.0 0.0 0.0 0.0 0.65 0.3 0.05 1.0 0.0 0.0 0.0 0.0 0.65 0.3 0.05 1.0 0.0 0.0 0.0 0.0 0.65 0.3 0.05 1.0 0.0 0.0 0.0 0.0 0.65 0.3 0.05 1.0 0.0 0.0 0.0 0.0 0.65 0.3 0.05 1.0 0.0 0.0 0.0 0.0 0.65 0.3 0.05 1.0 0.0 0.0 0.0 0.0 0.65 0.3 0.05 1.0 0.0 0.0 0.0 0.0 0.65 0.3 0.05 1.0 0.0 0.0 0.0 0.0 0.65 0.3 0.05 1.0 0.0 0.0 0.0 0.0 0.65 0.3 0.05 1.0 0.0 0.0 0.0 0.0 0.65 0.3 0.05 1.0 0.0 0.0 0.0 0.0 0.65 0.3 0.05 1.0 0.0 0.0 0.0 0.0 0.65 0.3 0.05 1.0 0.0 0.0 0.0 0.0 0.65 0.3 0.05 1.0 0.0 0.0 0.0 0.0 0.65 0.3 0.05 </TABLE>
    </DEFINITION>
    <DEFINITION>
      <FOR>F104</FOR>
      <GIVEN>Fault</GIVEN>
      <GIVEN>F97</GIVEN>
      <TABLE>1.0 0.0 0.0 0.0 0.0 0.05 0.15 0.8 1.0 0.0 0.0 0.0 0.0 0.2 0.4 0.4 1.0 0.0 0.0 0.0 0.0 0.2 0.4 0.4 1.0 0.0 0.0 0.0 0.0 0.2 0.4 0.4 1.0 0.0 0.0 0.0 0.0 0.2 0.4 0.4 1.0 0.0 0.0 0.0 0.0 0.05 0.15 0.8 1.0 0.0 0.0 0.0 0.0 0.95 0.04 0.01 1.0 0.0 0.0 0.0 0.0 0.2 0.4 0.4 1.0 0.0 0.0 0.0 0.0 0.2 0.4 0.4 1.0 0.0 0.0 0.0 0.0 0.2 0.4 0.4 1.0 0.0 0.0 0.0 0.0 0.2 0.4 0.4 1.0 0.0 0.0 0.0 0.0 0.2 0.4 0.4 1.0 0.0 0.0 0.0 0.0 0.2 0.4 0.4 1.0 0.0 0.0 0.0 0.0 0.2 0.4 0.4 1.0 0.0 0.0 0.0 0.0 0.2 0.4 0.4 1.0 0.0 0.0 0.0 0.0 0.2 0.4 0.4 1.0 0.0 0.0 0.0 0.0 0.2 0.4 0.4 1.0 0.0 0.0 0.0 0.0 0.2 0.4 0.4 1.0 0.0 0.0 0.0 0.0 0.2 0.4 0.4 1.0 0.0 0.0 0.0 0.0 0.2 0.4 0.4 1.0 0.0 0.0 0.0 0.0 0.2 0.4 0.4 1.0 0.0 0.0 0.0 0.0 0.2 0.4 0.4 1.0 0.0 0.0 0.0 0.0 0.2 0.4 0.4 1.0 0.0 0.0 0.0 0.0 0.2 0.4 0.4 1.0 0.0 0.0 0.0 0.0 0.2 0.4 0.4 1.0 0.0 0.0 0.0 0.0 0.2 0.4 0.4 1.0 0.0 0.0 0.0 0.0 0.2 0.4 0.4 1.0 0.0 0.0 0.0 0.0 0.2 0.4 0.4 1.0 0.0 0.0 0.0 0.0 0.2 0.4 0.4 1.0 0.0 0.0 0.0 0.0 0.2 0.4 0.4 1.0 0.0 0.0 0.0 0.0 0.2 0.4 0.4 1.0 0.0 0.0 0.0 0.0 0.2 0.4 0.4 1.0 0.0 0.0 0.0 0.0 0.2 0.4 0.4 1.0 0.0 0.0 0.0 0.0 0.2 0.4 0.4 1.0 0.0 0.0 0.0 0.0 0.75 0.2 0.05 1.0 0.0 0.0 0.0 0.0 0.7 0.25 0.05 1.0 0.0 0.0 0.0 0.0 0.3 0.3 0.4 1.0 0.0 0.0 0.0 0.0 0.1 0.2 0.7 1.0 0.0 0.0 0.0 0.0 0.2 0.4 0.4 1.0 0.0 0.0 0.0 0.0 0.2 0.4 0.4 1.0 0.0 0.0 0.0 0.0 0.2 0.4 0.4 1.0 0.0 0.0 0.0 0.0 0.2 0.4 0.4 1.0 0.0 0.0 0.0 0.0 0.2 0.4 0.4 1.0 0.0 0.0 0.0 0.0 0.2 0.4 0.4 1.0 0.0 0.0 0.0 0.0 0.2 0.4 0.4 1.0 0.0 0.0 0.0 0.0 0.2 0.4 0.4 1.0 0.0 0.0 0.0 0.0 0.2 0.4 0.4 1.0 0.0 0.0 0.0 0.0 0.2 0.4 0.4 1.0 0.0 0.0 0.0 0.0 0.2 0.4 0.4 1.0 0.0 0.0 0.0 0.0 0.2 0.4 0.4 1.0 0.0 0.0 0.0 0.0 0.2 0.4 0.4 1.0 0.0 0.0 0.0 0.0 0.2 0.4 0.4 1.0 0.0 0.0 0.0 0.0 0.2 0.4 0.4 1.0 0.0 0.0 0.0 0.0 0.2 0.4 0.4 1.0 0.0 0.0 0.0 0.0 0.2 0.4 0.4 1.0 0.0 0.0 0.0 0.0 0.2 0.4 0.4 1.0 0.0 0.0 0.0 0.0 0.2 0.4 0.4 1.0 0.0 0.0 0.0 0.0 0.2 0.4 0.4 1.0 0.0 0.0 0.0 0.0 0.2 0.4 0.4 1.0 0.0 0.0 0.0 0.0 0.15 0.2 0.65 1.0 0.0 0.0 0.0 0.0 0.2 0.4 0.4 1.0 0.0 0.0 0.0 0.0 0.85 0.1 0.05 1.0 0.0 0.0 0.0 0.0 0.2 0.4 0.4 </TABLE>
    </DEFINITION>
    <DEFINITION>
      <FOR>F105</FOR>
      <GIVEN>Fault</GIVEN>
      <GIVEN>F97</GIVEN>
      <TABLE>1.0 0.0 0.0 0.0 0.95 0.05 1.0 0.0 0.0 0.0 0.1 0.9 1.0 0.0 0.0 0.0 0.1 0.9 1.0 0.0 0.0 0.0 0.1 0.9 1.0 0.0 0.0 0.0 0.1 0.9 1.0 0.0 0.0 0.0 0.5 0.5 1.0 0.0 0.0 0.0 0.0 1.0 1.0 0.0 0.0 0.0 0.1 0.9 1.0 0.0 0.0 0.0 0.1 0.9 1.0 0.0 0.0 0.0 0.1 0.9 1.0 0.0 0.0 0.0 0.1 0.9 1.0 0.0 0.0 0.0 0.1 0.9 1.0 0.0 0.0 0.0 0.1 0.9 1.0 0.0 0.0 0.0 0.0 1.0 1.0 0.0 0.0 0.0 0.1 0.9 1.0 0.0 0.0 0.0 0.1 0.9 1.0 0.0 0.0 0.0 0.1 0.9 1.0 0.0 0.0 0.0 0.1 0.9 1.0 0.0 0.0 0.0 0.1 0.9 1.0 0.0 0.0 0.0 0.1 0.9 1.0 0.0 0.0 0.0 0.1 0.9 1.0 0.0 0.0 0.0 0.1 0.9 1.0 0.0 0.0 0.0 0.1 0.9 1.0 0.0 0.0 0.0 0.1 0.9 1.0 0.0 0.0 0.0 0.1 0.9 1.0 0.0 0.0 0.0 0.1 0.9 1.0 0.0 0.0 0.0 0.1 0.9 1.0 0.0 0.0 0.0 0.1 0.9 1.0 0.0 0.0 0.0 0.1 0.9 1.0 0.0 0.0 0.0 0.1 0.9 1.0 0.0 0.0 0.0 0.1 0.9 1.0 0.0 0.0 0.0 0.1 0.9 1.0 0.0 0.0 0.0 0.1 0.9 1.0 0.0 0.0 0.0 0.1 0.9 1.0 0.0 0.0 0.0 0.8 0.2 1.0 0.0 0.0 0.0 0.8 0.2 1.0 0.0 0.0 0.0 0.9 0.1 1.0 0.0 0.0 0.0 0.95 0.05 1.0 0.0 0.0 0.0 0.1 0.9 1.0 0.0 0.0 0.0 0.1 0.9 1.0 0.0 0.0 0.0 0.0 1.0 1.0 0.0 0.0 0.0 0.1 0.9 1.0 0.0 0.0 0.0 0.1 0.9 1.0 0.0 0.0 0.0 0.1 0.9 1.0 0.0 0.0 0.0 0.1 0.9 1.0 0.0 0.0 0.0 0.1 0.9 1.0 0.0 0.0 0.0 0.1 0.9 1.0 0.0 0.0 0.0 0.1 0.9 1.0 0.0 0.0 0.0 0.1 0.9 1.0 0.0 0.0 0.0 0.1 0.9 1.0 0.0 0.0 0.0 0.1 0.9 1.0 0.0 0.0 0.0 0.1 0.9 1.0 0.0 0.0 0.0 0.1 0.9 1.0 0.0 0.0 0.0 0.1 0.9 1.0 0.0 0.0 0.0 0.1 0.9 1.0 0.0 0.0 0.0 0.1 0.9 1.0 0.0 0.0 0.0 0.1 0.9 1.0 0.0 0.0 0.0 0.1 0.9 1.0 0.0 0.0 0.0 0.1 0.9 1.0 0.0 0.0 0.0 0.1 0.9 1.0 0.0 0.0 0.0 0.1 0.9 1.0 0.0 0.0 0.0 0.9 0.1 1.0 0.0 0.0 0.0 0.1 0.9 </TABLE>
    </DEFINITION>
    <DEFINITION>
      <FOR>F106</FOR>
      <GIVEN>Fault</GIVEN>
      <GIVEN>F97</GIVEN>
      <TABLE>1.0 0.0 0.0 0.0 0.0 0.0 0.1 0.9 1.0 0.0 0.0 0.0 0.0 0.0 0.1 0.9 1.0 0.0 0.0 0.0 0.0 0.0 0.1 0.9 1.0 0.0 0.0 0.0 0.0 0.0 0.1 0.9 1.0 0.0 0.0 0.0 0.0 0.0 0.1 0.9 1.0 0.0 0.0 0.0 0.0 0.0 0.1 0.9 1.0 0.0 0.0 0.0 0.0 0.0 0.1 0.9 1.0 0.0 0.0 0.0 0.0 0.0 0.1 0.9 1.0 0.0 0.0 0.0 0.0 0.0 0.1 0.9 1.0 0.0 0.0 0.0 0.0 0.0 0.1 0.9 1.0 0.0 0.0 0.0 0.0 0.0 0.1 0.9 1.0 0.0 0.0 0.0 0.0 0.0 0.1 0.9 1.0 0.0 0.0 0.0 0.0 0.0 0.1 0.9 1.0 0.0 0.0 0.0 0.0 0.0 0.1 0.9 1.0 0.0 0.0 0.0 0.0 0.0 0.1 0.9 1.0 0.0 0.0 0.0 0.0 0.0 0.1 0.9 1.0 0.0 0.0 0.0 0.0 0.0 0.1 0.9 1.0 0.0 0.0 0.0 0.0 0.0 0.1 0.9 1.0 0.0 0.0 0.0 0.0 0.0 0.1 0.9 1.0 0.0 0.0 0.0 0.0 0.0 0.1 0.9 1.0 0.0 0.0 0.0 0.0 0.0 0.1 0.9 1.0 0.0 0.0 0.0 0.0 0.0 0.1 0.9 1.0 0.0 0.0 0.0 0.0 0.0 0.1 0.9 1.0 0.0 0.0 0.0 0.0 0.0 0.1 0.9 1.0 0.0 0.0 0.0 0.0 0.0 0.1 0.9 1.0 0.0 0.0 0.0 0.0 0.0 0.1 0.9 1.0 0.0 0.0 0.0 0.0 0.0 0.1 0.9 1.0 0.0 0.0 0.0 0.0 0.0 0.1 0.9 1.0 0.0 0.0 0.0 0.0 0.0 0.1 0.9 1.0 0.0 0.0 0.0 0.0 0.0 0.1 0.9 1.0 0.0 0.0 0.0 0.0 0.0 0.1 0.9 1.0 0.0 0.0 0.0 0.0 0.0 0.1 0.9 1.0 0.0 0.0 0.0 0.0 0.0 0.1 0.9 1.0 0.0 0.0 0.0 0.0 0.0 0.1 0.9 1.0 0.0 0.0 0.0 0.0 0.5 0.4 0.1 1.0 0.0 0.0 0.0 0.0 0.5 0.4 0.1 1.0 0.0 0.0 0.0 0.0 0.6 0.3 0.1 1.0 0.0 0.0 0.0 0.0 0.6 0.35 0.05 1.0 0.0 0.0 0.0 0.0 0.0 0.1 0.9 1.0 0.0 0.0 0.0 0.0 0.0 0.1 0.9 1.0 0.0 0.0 0.0 0.0 0.0 0.1 0.9 1.0 0.0 0.0 0.0 0.0 0.0 0.1 0.9 1.0 0.0 0.0 0.0 0.0 0.0 0.1 0.9 1.0 0.0 0.0 0.0 0.0 0.0 0.1 0.9 1.0 0.0 0.0 0.0 0.0 0.0 0.1 0.9 1.0 0.0 0.0 0.0 0.0 0.0 0.1 0.9 1.0 0.0 0.0 0.0 0.0 0.0 0.1 0.9 1.0 0.0 0.0 0.0 0.0 0.0 0.1 0.9 1.0 0.0 0.0 0.0 0.0 0.0 0.1 0.9 1.0 0.0 0.0 0.0 0.0 0.0 0.1 0.9 1.0 0.0 0.0 0.0 0.0 0.0 0.1 0.9 1.0 0.0 0.0 0.0 0.0 0.0 0.1 0.9 1.0 0.0 0.0 0.0 0.0 0.0 0.1 0.9 1.0 0.0 0.0 0.0 0.0 0.0 0.1 0.9 1.0 0.0 0.0 0.0 0.0 0.0 0.1 0.9 1.0 0.0 0.0 0.0 0.0 0.0 0.1 0.9 1.0 0.0 0.0 0.0 0.0 0.0 0.1 0.9 1.0 0.0 0.0 0.0 0.0 0.0 0.1 0.9 1.0 0.0 0.0 0.0 0.0 0.0 0.1 0.9 1.0 0.0 0.0 0.0 0.0 0.0 0.1 0.9 1.0 0.0 0.0 0.0 0.0 0.0 0.1 0.9 1.0 0.0 0.0 0.0 0.0 0.0 0.1 0.9 1.0 0.0 0.0 0.0 0.0 0.0 0.1 0.9 </TABLE>
    </DEFINITION>
    <DEFINITION>
      <FOR>F107</FOR>
      <GIVEN>Fault</GIVEN>
      <GIVEN>F41</GIVEN>
      <GIVEN>F44</GIVEN>
      <TABLE>1.0 0.0 0.0 0.0 1.0 0.0 0.0 1.0 0.0 0.0 1.0 0.0 1.0 0.0 0.0 0.0 1.0 0.0 0.0 1.0 0.0 0.0 1.0 0.0 1.0 0.0 0.0 0.0 1.0 0.0 0.0 1.0 0.0 0.0 1.0 0.0 1.0 0.0 0.0 0.0 1.0 0.0 0.0 1.0 0.0 0.0 1.0 0.0 1.0 0.0 0.0 0.0 1.0 0.0 0.0 1.0 0.0 0.0 1.0 0.0 1.0 0.0 0.0 0.0 1.0 0.0 0.0 1.0 0.0 0.0 1.0 0.0 1.0 0.0 0.0 0.0 1.0 0.0 0.0 1.0 0.0 0.0 1.0 0.0 1.0 0.0 0.0 0.0 1.0 0.0 0.0 1.0 0.0 0.0 1.0 0.0 1.0 0.0 0.0 0.0 1.0 0.0 0.0 1.0 0.0 0.0 1.0 0.0 1.0 0.0 0.0 0.0 1.0 0.0 0.0 1.0 0.0 0.0 1.0 0.0 1.0 0.0 0.0 0.0 1.0 0.0 0.0 1.0 0.0 0.0 1.0 0.0 1.0 0.0 0.0 0.0 1.0 0.0 0.0 1.0 0.0 0.0 1.0 0.0 1.0 0.0 0.0 0.0 1.0 0.0 0.0 1.0 0.0 0.0 1.0 0.0 1.0 0.0 0.0 0.0 1.0 0.0 0.0 1.0 0.0 0.0 1.0 0.0 1.0 0.0 0.0 0.0 1.0 0.0 0.0 1.0 0.0 0.0 1.0 0.0 1.0 0.0 0.0 0.0 1.0 0.0 0.0 1.0 0.0 0.0 1.0 0.0 1.0 0.0 0.0 0.0 1.0 0.0 0.0 1.0 0.0 0.0 1.0 0.0 1.0 0.0 0.0 0.0 1.0 0.0 0.0 1.0 0.0 0.0 1.0 0.0 1.0 0.0 0.0 0.0 1.0 0.0 0.0 1.0 0.0 0.0 1.0 0.0 1.0 0.0 0.0 0.0 1.0 0.0 0.0 1.0 0.0 0.0 1.0 0.0 1.0 0.0 0.0 0.0 1.0 0.0 0.0 1.0 0.0 0.0 1.0 0.0 1.0 0.0 0.0 0.0 1.0 0.0 0.0 1.0 0.0 0.0 1.0 0.0 1.0 0.0 0.0 0.0 1.0 0.0 0.0 1.0 0.0 0.0 1.0 0.0 1.0 0.0 0.0 0.0 1.0 0.0 0.0 1.0 0.0 0.0 1.0 0.0 1.0 0.0 0.0 0.0 1.0 0.0 0.0 1.0 0.0 0.0 1.0 0.0 1.0 0.0 0.0 0.0 1.0 0.0 0.0 1.0 0.0 0.0 1.0 0.0 1.0 0.0 0.0 0.0 1.0 0.0 0.0 1.0 0.0 0.0 1.0 0.0 1.0 0.0 0.0 0.0 1.0 0.0 0.0 1.0 0.0 0.0 1.0 0.0 1.0 0.0 0.0 0.0 1.0 0.0 0.0 1.0 0.0 0.0 1.0 0.0 1.0 0.0 0.0 0.0 1.0 0.0 0.0 1.0 0.0 0.0 1.0 0.0 1.0 0.0 0.0 0.0 1.0 0.0 0.0 1.0 0.0 0.0 1.0 0.0 1.0 0.0 0.0 0.0 1.0 0.0 0.0 1.0 0.0 0.0 1.0 0.0 1.0 0.0 0.0 0.0 1.0 0.0 0.0 1.0 0.0 0.0 1.0 0.0 1.0 0.0 0.0 0.0 1.0 0.0 0.0 1.0 0.0 0.0 1.0 0.0 1.0 0.0 0.0 0.0 1.0 0.0 0.0 1.0 0.0 0.0 1.0 0.0 1.0 0.0 0.0 0.0 1.0 0.0 0.0 1.0 0.0 0.0 1.0 0.0 1.0 0.0 0.0 0.0 1.0 0.0 0.0 1.0 0.0 0.0 1.0 0.0 1.0 0.0 0.0 0.0 1.0 0.0 0.0 1.0 0.0 0.0 1.0 0.0 1.0 0.0 0.0 0.0 1.0 0.0 0.0 1.0 0.0 0.0 1.0 0.0 1.0 0.0 0.0 0.0 1.0 0.0 0.0 1.0 0.0 0.0 1.0 0.0 1.0 0.0 0.0 0.0 1.0 0.0 0.0 1.0 0.0 0.0 1.0 0.0 1.0 0.0 0.0 0.0 1.0 0.0 0.0 1.0 0.0 0.0 1.0 0.0 1.0 0.0 0.0 0.0 1.0 0.0 0.0 1.0 0.0 0.0 1.0 0.0 1.0 0.0 0.0 0.0 1.0 0.0 0.0 1.0 0.0 0.0 1.0 0.0 1.0 0.0 0.0 0.0 1.0 0.0 0.0 1.0 0.0 0.0 1.0 0.0 1.0 0.0 0.0 0.0 1.0 0.0 0.0 1.0 0.0 0.0 1.0 0.0 1.0 0.0 0.0 0.0 1.0 0.0 0.0 1.0 0.0 0.0 1.0 0.0 1.0 0.0 0.0 0.0 1.0 0.0 0.0 1.0 0.0 0.0 1.0 0.0 1.0 0.0 0.0 0.0 1.0 0.0 0.0 1.0 0.0 0.0 1.0 0.0 1.0 0.0 0.0 0.0 1.0 0.0 0.0 1.0 0.0 0.0 1.0 0.0 1.0 0.0 0.0 0.0 1.0 0.0 0.0 1.0 0.0 0.0 1.0 0.0 1.0 0.0 0.0 0.0 1.0 0.0 0.0 1.0 0.0 0.0 1.0 0.0 1.0 0.0 0.0 0.0 1.0 0.0 0.0 1.0 0.0 0.0 1.0 0.0 1.0 0.0 0.0 0.0 1.0 0.0 0.0 1.0 0.0 0.0 1.0 0.0 1.0 0.0 0.0 0.0 0.4 0.6 0.0 0.4 0.6 0.0 0.4 0.6 1.0 0.0 0.0 0.0 1.0 0.0 0.0 1.0 0.0 0.0 1.0 0.0 1.0 0.0 0.0 0.0 1.0 0.0 0.0 1.0 0.0 0.0 1.0 0.0 1.0 0.0 0.0 0.0 1.0 0.0 0.0 1.0 0.0 0.0 1.0 0.0 1.0 0.0 0.0 0.0 1.0 0.0 0.0 1.0 0.0 0.0 1.0 0.0 1.0 0.0 0.0 0.0 1.0 0.0 0.0 1.0 0.0 0.0 1.0 0.0 1.0 0.0 0.0 0.0 1.0 0.0 0.0 1.0 0.0 0.0 1.0 0.0 1.0 0.0 0.0 0.0 1.0 0.0 0.0 1.0 0.0 0.0 1.0 0.0 1.0 0.0 0.0 0.0 1.0 0.0 0.0 1.0 0.0 0.0 1.0 0.0 </TABLE>
    </DEFINITION>
    <DEFINITION>
      <FOR>F108</FOR>
      <GIVEN>Fault</GIVEN>
      <TABLE>0.5 0.5 0.5 0.5 0.5 0.5 0.5 0.5 0.5 0.5 0.5 0.5 0.5 0.5 0.5 0.5 0.5 0.5 0.5 0.5 0.5 0.5 0.5 0.5 0.5 0.5 0.5 0.5 0.5 0.5 0.5 0.5 0.5 0.5 0.5 0.5 0.5 0.5 0.5 0.5 0.5 0.5 0.5 0.5 0.5 0.5 0.5 0.5 0.5 0.5 0.5 0.5 0.5 0.5 0.5 0.5 0.5 0.5 0.5 0.5 0.5 0.5 0.5 0.5 0.5 0.5 0.5 0.5 0.5 0.5 0.5 0.5 0.5 0.5 0.5 0.5 0.5 0.5 0.5 0.5 0.5 0.5 0.5 0.5 0.5 0.5 0.5 0.5 0.5 0.5 0.5 0.5 0.5 0.5 0.5 0.5 0.5 0.5 0.5 0.5 0.5 0.5 0.5 0.5 0.5 0.5 0.5 0.5 0.5 0.5 0.5 0.5 0.5 0.5 0.5 0.5 0.5 0.5 0.5 0.5 0.5 0.5 0.5 0.5 0.5 0.5 </TABLE>
    </DEFINITION>
    <DEFINITION>
      <FOR>F11</FOR>
      <GIVEN>Fault</GIVEN>
      <GIVEN>F52</GIVEN>
      <TABLE>1.0 0.0 0.0 0.0 0.0 1.0 0.0 0.0 0.0 0.0 0.2 0.2 0.2 0.2 0.2 0.2 0.2 0.2 0.2 0.2 1.0 0.0 0.0 0.0 0.0 1.0 0.0 0.0 0.0 0.0 0.2 0.2 0.2 0.2 0.2 0.2 0.2 0.2 0.2 0.2 1.0 0.0 0.0 0.0 0.0 1.0 0.0 0.0 0.0 0.0 0.2 0.2 0.2 0.2 0.2 0.2 0.2 0.2 0.2 0.2 1.0 0.0 0.0 0.0 0.0 1.0 0.0 0.0 0.0 0.0 0.2 0.2 0.2 0.2 0.2 0.2 0.2 0.2 0.2 0.2 1.0 0.0 0.0 0.0 0.0 1.0 0.0 0.0 0.0 0.0 0.2 0.2 0.2 0.2 0.2 0.2 0.2 0.2 0.2 0.2 1.0 0.0 0.0 0.0 0.0 1.0 0.0 0.0 0.0 0.0 0.2 0.2 0.2 0.2 0.2 0.2 0.2 0.2 0.2 0.2 1.0 0.0 0.0 0.0 0.0 1.0 0.0 0.0 0.0 0.0 0.999 0.001 0.0 0.0 0.0 0.2 0.2 0.2 0.2 0.2 1.0 0.0 0.0 0.0 0.0 1.0 0.0 0.0 0.0 0.0 0.999 0.001 0.0 0.0 0.0 0.2 0.2 0.2 0.2 0.2 1.0 0.0 0.0 0.0 0.0 1.0 0.0 0.0 0.0 0.0 0.2 0.2 0.2 0.2 0.2 0.2 0.2 0.2 0.2 0.2 1.0 0.0 0.0 0.0 0.0 1.0 0.0 0.0 0.0 0.0 0.2 0.2 0.2 0.2 0.2 0.2 0.2 0.2 0.2 0.2 0.999 0.001 0.0 0.0 0.0 0.999 0.001 0.0 0.0 0.0 0.98088279 0.01901712 0.00010009 0.0 0.0 0.2 0.2 0.2 0.2 0.2 1.0 0.0 0.0 0.0 0.0 1.0 0.0 0.0 0.0 0.0 0.2 0.2 0.2 0.2 0.2 0.2 0.2 0.2 0.2 0.2 1.0 0.0 0.0 0.0 0.0 1.0 0.0 0.0 0.0 0.0 0.2 0.2 0.2 0.2 0.2 0.2 0.2 0.2 0.2 0.2 1.0 0.0 0.0 0.0 0.0 1.0 0.0 0.0 0.0 0.0 0.2 0.2 0.2 0.2 0.2 0.2 0.2 0.2 0.2 0.2 1.0 0.0 0.0 0.0 0.0 1.0 0.0 0.0 0.0 0.0 0.2 0.2 0.2 0.2 0.2 0.2 0.2 0.2 0.2 0.2 1.0 0.0 0.0 0.0 0.0 1.0 0.0 0.0 0.0 0.0 0.2 0.2 0.2 0.2 0.2 0.2 0.2 0.2 0.2 0.2 1.0 0.0 0.0 0.0 0.0 1.0 0.0 0.0 0.0 0.0 0.2 0.2 0.2 0.2 0.2 0.2 0.2 0.2 0.2 0.2 1.0 0.0 0.0 0.0 0.0 1.0 0.0 0.0 0.0 0.0 0.2 0.2 0.2 0.2 0.2 0.2 0.2 0.2 0.2 0.2 1.0 0.0 0.0 0.0 0.0 1.0 0.0 0.0 0.0 0.0 0.2 0.2 0.2 0.2 0.2 0.2 0.2 0.2 0.2 0.2 1.0 0.0 0.0 0.0 0.0 1.0 0.0 0.0 0.0 0.0 0.2 0.2 0.2 0.2 0.2 0.2 0.2 0.2 0.2 0.2 1.0 0.0 0.0 0.0 0.0 1.0 0.0 0.0 0.0 0.0 0.2 0.2 0.2 0.2 0.2 0.2 0.2 0.2 0.2 0.2 1.0 0.0 0.0 0.0 0.0 1.0 0.0 0.0 0.0 0.0 0.2 0.2 0.2 0.2 0.2 0.2 0.2 0.2 0.2 0.2 1.0 0.0 0.0 0.0 0.0 1.0 0.0 0.0 0.0 0.0 0.2 0.2 0.2 0.2 0.2 0.2 0.2 0.2 0.2 0.2 0.999 0.001 0.0 0.0 0.0 0.999 0.001 0.0 0.0 0.0 0.98088279 0.01901712 0.00010009 0.0 0.0 0.2 0.2 0.2 0.2 0.2 1.0 0.0 0.0 0.0 0.0 1.0 0.0 0.0 0.0 0.0 0.2 0.2 0.2 0.2 0.2 0.2 0.2 0.2 0.2 0.2 0.2 0.2 0.2 0.2 0.2 0.0 1.0 0.0 0.0 0.0 0.0 1.0 0.0 0.0 0.0 0.2 0.2 0.2 0.2 0.2 0.2 0.2 0.2 0.2 0.2 0.0 1.0 0.0 0.0 0.0 0.0 1.0 0.0 0.0 0.0 0.2 0.2 0.2 0.2 0.2 0.0 0.15 0.58 0.25 0.02 0.0 0.15 0.58 0.25 0.02 0.0 0.01 0.6 0.35 0.04 0.0 0.01 0.44 0.45 0.1 0.0 0.15 0.58 0.25 0.02 0.0 0.15 0.58 0.25 0.02 0.0 0.01 0.6 0.35 0.04 0.0 0.01 0.44 0.45 0.1 0.0 0.15 0.58 0.25 0.02 0.0 0.15 0.58 0.25 0.02 0.0 0.01 0.6 0.35 0.04 0.0 0.01 0.44 0.45 0.1 0.2 0.2 0.2 0.2 0.2 0.0 0.0 0.63 0.35 0.02 0.0 0.01 0.69 0.3 0.0 0.0 0.01 0.59 0.4 0.0 0.0 0.3 0.6 0.1 0.0 0.0 0.25 0.6 0.15 0.0 0.0 0.01 0.79 0.2 0.0 0.0 0.01 0.69 0.2 0.1 0.2 0.2 0.2 0.2 0.2 0.0 0.02 0.62 0.35 0.01 0.0 0.02 0.62 0.35 0.01 0.0 0.0 0.53 0.45 0.02 0.2 0.2 0.2 0.2 0.2 0.0 0.0 0.01 0.59 0.4 0.0 0.0 0.01 0.4 0.59 0.0 0.0 0.00990099 0.24752475 0.74257426 1.0 0.0 0.0 0.0 0.0 1.0 0.0 0.0 0.0 0.0 0.2 0.2 0.2 0.2 0.2 0.2 0.2 0.2 0.2 0.2 1.0 0.0 0.0 0.0 0.0 1.0 0.0 0.0 0.0 0.0 0.2 0.2 0.2 0.2 0.2 0.2 0.2 0.2 0.2 0.2 1.0 0.0 0.0 0.0 0.0 1.0 0.0 0.0 0.0 0.0 0.2 0.2 0.2 0.2 0.2 0.2 0.2 0.2 0.2 0.2 1.0 0.0 0.0 0.0 0.0 1.0 0.0 0.0 0.0 0.0 0.2 0.2 0.2 0.2 0.2 0.2 0.2 0.2 0.2 0.2 1.0 0.0 0.0 0.0 0.0 1.0 0.0 0.0 0.0 0.0 0.2 0.2 0.2 0.2 0.2 0.2 0.2 0.2 0.2 0.2 1.0 0.0 0.0 0.0 0.0 1.0 0.0 0.0 0.0 0.0 0.2 0.2 0.2 0.2 0.2 0.2 0.2 0.2 0.2 0.2 1.0 0.0 0.0 0.0 0.0 1.0 0.0 0.0 0.0 0.0 0.2 0.2 0.2 0.2 0.2 0.2 0.2 0.2 0.2 0.2 1.0 0.0 0.0 0.0 0.0 1.0 0.0 0.0 0.0 0.0 0.2 0.2 0.2 0.2 0.2 0.2 0.2 0.2 0.2 0.2 1.0 0.0 0.0 0.0 0.0 1.0 0.0 0.0 0.0 0.0 0.2 0.2 0.2 0.2 0.2 0.2 0.2 0.2 0.2 0.2 0.999 0.001 0.0 0.0 0.0 0.999 0.001 0.0 0.0 0.0 0.99 0.01 0.0 0.0 0.0 0.2 0.2 0.2 0.2 0.2 0.97 0.02 0.01 0.0 0.0 0.97 0.02 0.01 0.0 0.0 0.95 0.04 0.01 0.0 0.0 0.2 0.2 0.2 0.2 0.2 0.999 0.001 0.0 0.0 0.0 0.999 0.001 0.0 0.0 0.0 0.99 0.01 0.0 0.0 0.0 0.2 0.2 0.2 0.2 0.2 0.999 0.001 0.0 0.0 0.0 0.999 0.001 0.0 0.0 0.0 0.99 0.01 0.0 0.0 0.0 0.2 0.2 0.2 0.2 0.2 0.999 0.001 0.0 0.0 0.0 0.999 0.001 0.0 0.0 0.0 0.99 0.01 0.0 0.0 0.0 0.2 0.2 0.2 0.2 0.2 1.0 0.0 0.0 0.0 0.0 1.0 0.0 0.0 0.0 0.0 0.2 0.2 0.2 0.2 0.2 0.2 0.2 0.2 0.2 0.2 1.0 0.0 0.0 0.0 0.0 1.0 0.0 0.0 0.0 0.0 0.2 0.2 0.2 0.2 0.2 0.2 0.2 0.2 0.2 0.2 0.999 0.001 0.0 0.0 0.0 0.999 0.001 0.0 0.0 0.0 0.99 0.01 0.0 0.0 0.0 0.2 0.2 0.2 0.2 0.2 0.999 0.001 0.0 0.0 0.0 0.999 0.001 0.0 0.0 0.0 0.99 0.01 0.0 0.0 0.0 0.2 0.2 0.2 0.2 0.2 0.8 0.1 0.1 0.0 0.0 0.8 0.1 0.1 0.0 0.0 0.01010101 0.90909091 0.05050505 0.03030303 0.0 0.000999 0.1998002 0.6993007 0.07992008 0.01998002 1.0 0.0 0.0 0.0 0.0 1.0 0.0 0.0 0.0 0.0 0.2 0.2 0.2 0.2 0.2 0.2 0.2 0.2 0.2 0.2 1.0 0.0 0.0 0.0 0.0 1.0 0.0 0.0 0.0 0.0 0.2 0.2 0.2 0.2 0.2 0.2 0.2 0.2 0.2 0.2 1.0 0.0 0.0 0.0 0.0 1.0 0.0 0.0 0.0 0.0 0.2 0.2 0.2 0.2 0.2 0.2 0.2 0.2 0.2 0.2 0.999001 0.000999 0.0 0.0 0.0 0.999001 0.000999 0.0 0.0 0.0 0.2 0.2 0.2 0.2 0.2 0.2 0.2 0.2 0.2 0.2 0.999001 0.000999 0.0 0.0 0.0 0.999001 0.000999 0.0 0.0 0.0 0.2 0.2 0.2 0.2 0.2 0.2 0.2 0.2 0.2 0.2 0.95 0.04 0.01 0.0 0.0 0.95 0.04 0.01 0.0 0.0 0.95 0.04 0.01 0.0 0.0 0.2 0.2 0.2 0.2 0.2 1.0 0.0 0.0 0.0 0.0 1.0 0.0 0.0 0.0 0.0 0.2 0.2 0.2 0.2 0.2 0.2 0.2 0.2 0.2 0.2 1.0 0.0 0.0 0.0 0.0 1.0 0.0 0.0 0.0 0.0 0.2 0.2 0.2 0.2 0.2 0.2 0.2 0.2 0.2 0.2 1.0 0.0 0.0 0.0 0.0 1.0 0.0 0.0 0.0 0.0 0.2 0.2 0.2 0.2 0.2 0.2 0.2 0.2 0.2 0.2 0.999 0.001 0.0 0.0 0.0 0.999 0.001 0.0 0.0 0.0 0.99 0.01 0.0 0.0 0.0 0.2 0.2 0.2 0.2 0.2 </TABLE>
    </DEFINITION>
    <DEFINITION>
      <FOR>F12</FOR>
      <GIVEN>Fault</GIVEN>
      <TABLE>1.0 0.0 1.0 0.0 1.0 0.0 1.0 0.0 1.0 0.0 1.0 0.0 1.0 0.0 1.0 0.0 1.0 0.0 1.0 0.0 1.0 0.0 1.0 0.0 1.0 0.0 1.0 0.0 1.0 0.0 1.0 0.0 1.0 0.0 1.0 0.0 1.0 0.0 1.0 0.0 1.0 0.0 1.0 0.0 1.0 0.0 1.0 0.0 1.0 0.0 1.0 0.0 1.0 0.0 1.0 0.0 1.0 0.0 1.0 0.0 1.0 0.0 1.0 0.0 1.0 0.0 1.0 0.0 1.0 0.0 1.0 0.0 1.0 0.0 1.0 0.0 1.0 0.0 1.0 0.0 1.0 0.0 1.0 0.0 1.0 0.0 1.0 0.0 1.0 0.0 1.0 0.0 1.0 0.0 1.0 0.0 1.0 0.0 1.0 0.0 1.0 0.0 1.0 0.0 1.0 0.0 1.0 0.0 1.0 0.0 0.25 0.75 1.0 0.0 1.0 0.0 1.0 0.0 0.99 0.01 1.0 0.0 1.0 0.0 1.0 0.0 </TABLE>
    </DEFINITION>
    <DEFINITION>
      <FOR>F13</FOR>
      <GIVEN>Fault</GIVEN>
      <GIVEN>F8</GIVEN>
      <TABLE>1.0 0.0 0.0 0.99999 1e-05 0.0 0.9999 9.999e-05 0.0 1.0 0.0 0.0 0.99999 1e-05 0.0 0.9999 9.999e-05 0.0 1.0 0.0 0.0 0.99999 1e-05 0.0 0.9999 9.999e-05 0.0 1.0 0.0 0.0 0.99999 1e-05 0.0 0.9999 9.999e-05 0.0 1.0 0.0 0.0 0.99999 1e-05 0.0 0.9999 9.999e-05 0.0 1.0 0.0 0.0 0.99999 1e-05 0.0 0.9999 9.999e-05 0.0 1.0 0.0 0.0 0.99999 1e-05 0.0 0.9999 9.999e-05 0.0 1.0 0.0 0.0 0.99999 1e-05 0.0 0.9999 9.999e-05 0.0 1.0 0.0 0.0 0.99999 1e-05 0.0 0.9999 9.999e-05 0.0 1.0 0.0 0.0 0.99999 1e-05 0.0 0.9999 9.999e-05 0.0 1.0 0.0 0.0 0.99999 1e-05 0.0 0.9999 9.999e-05 0.0 1.0 0.0 0.0 0.99999 1e-05 0.0 0.9999 9.999e-05 0.0 1.0 0.0 0.0 0.99999 1e-05 0.0 0.9999 9.999e-05 0.0 1.0 0.0 0.0 0.99999 1e-05 0.0 0.9999 9.999e-05 0.0 1.0 0.0 0.0 0.99999 1e-05 0.0 0.9999 9.999e-05 0.0 1.0 0.0 0.0 0.99999 1e-05 0.0 0.9999 9.999e-05 0.0 1.0 0.0 0.0 0.99999 1e-05 0.0 0.9999 9.999e-05 0.0 1.0 0.0 0.0 0.99999 1e-05 0.0 0.9999 9.999e-05 0.0 0.5 0.4 0.1 1e-05 0.499995 0.499995 0.0 0.3 0.7 1.0 0.0 0.0 0.99999 1e-05 0.0 0.9999 9.999e-05 0.0 1.0 0.0 0.0 0.99999 1e-05 0.0 0.9999 9.999e-05 0.0 1.0 0.0 0.0 0.99999 1e-05 0.0 0.9999 9.999e-05 0.0 1.0 0.0 0.0 0.99999 1e-05 0.0 0.9999 9.999e-05 0.0 1.0 0.0 0.0 0.99999 1e-05 0.0 0.9999 9.999e-05 0.0 1.0 0.0 0.0 0.99999 1e-05 0.0 0.9999 9.999e-05 0.0 1.0 0.0 0.0 0.99999 1e-05 0.0 0.9999 9.999e-05 0.0 1.0 0.0 0.0 0.99999 1e-05 0.0 0.9999 9.999e-05 0.0 1.0 0.0 0.0 0.99999 1e-05 0.0 0.9999 9.999e-05 0.0 1.0 0.0 0.0 0.99999 1e-05 0.0 0.9999 9.999e-05 0.0 1.0 0.0 0.0 0.99999 1e-05 0.0 0.9999 9.999e-05 0.0 1.0 0.0 0.0 0.99999 1e-05 0.0 0.9999 9.999e-05 0.0 1.0 0.0 0.0 0.99999 1e-05 0.0 0.9999 9.999e-05 0.0 1.0 0.0 0.0 0.99999 1e-05 0.0 0.9999 9.999e-05 0.0 1.0 0.0 0.0 0.99999 1e-05 0.0 0.9999 9.999e-05 0.0 1.0 0.0 0.0 0.99999 1e-05 0.0 0.9999 9.999e-05 0.0 1.0 0.0 0.0 0.99999 1e-05 0.0 0.9999 9.999e-05 0.0 1.0 0.0 0.0 0.99999 1e-05 0.0 0.9999 9.999e-05 0.0 1.0 0.0 0.0 0.99999 1e-05 0.0 0.9999 9.999e-05 0.0 1.0 0.0 0.0 0.99999 1e-05 0.0 0.9999 9.999e-05 0.0 1.0 0.0 0.0 0.99999 1e-05 0.0 0.9999 9.999e-05 0.0 1.0 0.0 0.0 0.99999 1e-05 0.0 0.9999 9.999e-05 0.0 1.0 0.0 0.0 0.99999 1e-05 0.0 0.9999 9.999e-05 0.0 1.0 0.0 0.0 0.99999 1e-05 0.0 0.9999 9.999e-05 0.0 1.0 0.0 0.0 0.99999 1e-05 0.0 0.9999 9.999e-05 0.0 1.0 0.0 0.0 0.99999 1e-05 0.0 0.9999 9.999e-05 0.0 1.0 0.0 0.0 0.99999 1e-05 0.0 0.9999 9.999e-05 0.0 1.0 0.0 0.0 0.99999 1e-05 0.0 0.9999 9.999e-05 0.0 1.0 0.0 0.0 0.99999 1e-05 0.0 0.9999 9.999e-05 0.0 1.0 0.0 0.0 0.99999 1e-05 0.0 0.9999 9.999e-05 0.0 1.0 0.0 0.0 0.99999 1e-05 0.0 0.9999 9.999e-05 0.0 1.0 0.0 0.0 0.99999 1e-05 0.0 0.9999 9.999e-05 0.0 1.0 0.0 0.0 0.99999 1e-05 0.0 0.9999 9.999e-05 0.0 1.0 0.0 0.0 0.99999 1e-05 0.0 0.9999 9.999e-05 0.0 1.0 0.0 0.0 0.99999 1e-05 0.0 0.9999 9.999e-05 0.0 1.0 0.0 0.0 0.99999 1e-05 0.0 0.9999 9.999e-05 0.0 1.0 0.0 0.0 0.99999 1e-05 0.0 0.9999 9.999e-05 0.0 1.0 0.0 0.0 0.99999 1e-05 0.0 0.9999 9.999e-05 0.0 1.0 0.0 0.0 0.99999 1e-05 0.0 0.9999 9.999e-05 0.0 1.0 0.0 0.0 0.99999 1e-05 0.0 0.9999 9.999e-05 0.0 1.0 0.0 0.0 0.99999 1e-05 0.0 0.9999 9.999e-05 0.0 1.0 0.0 0.0 0.99999 1e-05 0.0 0.9999 9.999e-05 0.0 1.0 0.0 0.0 0.99999 1e-05 0.0 0.9999 9.999e-05 0.0 1.0 0.0 0.0 0.99999 1e-05 0.0 0.9999 9.999e-05 0.0 </TABLE>
    </DEFINITION>
    <DEFINITION>
      <FOR>F14</FOR>
      <GIVEN>Fault</GIVEN>
      <TABLE>1.0 0.0 1.0 0.0 1.0 0.0 0.9999 0.0001 1.0 0.0 1.0 0.0 1.0 0.0 1.0 0.0 0.9999 0.0001 0.6 0.4 1.0 0.0 1.0 0.0 1.0 0.0 1.0 0.0 1.0 0.0 0.9999 0.0001 1.0 0.0 1.0 0.0 1.0 0.0 1.0 0.0 1.0 0.0 1.0 0.0 1.0 0.0 1.0 0.0 1.0 0.0 1.0 0.0 1.0 0.0 0.99 0.01 0.99 0.01 0.99 0.01 0.99 0.01 0.99 0.01 1.0 0.0 1.0 0.0 1.0 0.0 1.0 0.0 1.0 0.0 1.0 0.0 1.0 0.0 1.0 0.0 1.0 0.0 1.0 0.0 1.0 0.0 1.0 0.0 1.0 0.0 1.0 0.0 1.0 0.0 1.0 0.0 1.0 0.0 1.0 0.0 1.0 0.0 1.0 0.0 1.0 0.0 1.0 0.0 1.0 0.0 1.0 0.0 1.0 0.0 1.0 0.0 1.0 0.0 1.0 0.0 0.9999 0.0001 1.0 0.0 1.0 0.0 </TABLE>
    </DEFINITION>
    <DEFINITION>
      <FOR>F15</FOR>
      <GIVEN>Fault</GIVEN>
      <TABLE>1.0 0.0 1.0 0.0 1.0 0.0 1.0 0.0 1.0 0.0 1.0 0.0 1.0 0.0 1.0 0.0 1.0 0.0 1.0 0.0 1.0 0.0 1.0 0.0 1.0 0.0 1.0 0.0 1.0 0.0 1.0 0.0 1.0 0.0 1.0 0.0 1.0 0.0 1.0 0.0 1.0 0.0 1.0 0.0 1.0 0.0 1.0 0.0 1.0 0.0 1.0 0.0 1.0 0.0 1.0 0.0 1.0 0.0 1.0 0.0 1.0 0.0 1.0 0.0 1.0 0.0 1.0 0.0 1.0 0.0 1.0 0.0 1.0 0.0 1.0 0.0 1.0 0.0 1.0 0.0 1.0 0.0 1.0 0.0 1.0 0.0 1.0 0.0 1.0 0.0 1.0 0.0 1.0 0.0 1.0 0.0 1.0 0.0 1.0 0.0 1.0 0.0 1.0 0.0 1.0 0.0 1.0 0.0 0.5 0.5 1.0 0.0 1.0 0.0 1.0 0.0 1.0 0.0 1.0 0.0 1.0 0.0 1.0 0.0 1.0 0.0 </TABLE>
    </DEFINITION>
    <DEFINITION>
      <FOR>F16</FOR>
      <GIVEN>Fault</GIVEN>
      <GIVEN>F15</GIVEN>
      <TABLE>0.5999 0.4 0.0001 0.3333333 0.3333333 0.3333333 0.2 0.75 0.05 0.3333333 0.3333333 0.3333333 0.5999 0.4 0.0001 0.3333333 0.3333333 0.3333333 0.05 0.9 0.05 0.3333333 0.3333333 0.3333333 0.5999 0.4 0.0001 0.3333333 0.3333333 0.3333333 0.5999 0.4 0.0001 0.3333333 0.3333333 0.3333333 0.5999 0.4 0.0001 0.3333333 0.3333333 0.3333333 0.5999 0.4 0.0001 0.3333333 0.3333333 0.3333333 0.05 0.9 0.05 0.3333333 0.3333333 0.3333333 0.01 0.2 0.79 0.3333333 0.3333333 0.3333333 0.15 0.83 0.02 0.3333333 0.3333333 0.3333333 0.5999 0.4 0.0001 0.3333333 0.3333333 0.3333333 0.5999 0.4 0.0001 0.3333333 0.3333333 0.3333333 0.5999 0.4 0.0001 0.3333333 0.3333333 0.3333333 0.5999 0.4 0.0001 0.3333333 0.3333333 0.3333333 0.05 0.9 0.05 0.3333333 0.3333333 0.3333333 0.5999 0.4 0.0001 0.3333333 0.3333333 0.3333333 0.5999 0.4 0.0001 0.3333333 0.3333333 0.3333333 0.5999 0.4 0.0001 0.3333333 0.3333333 0.3333333 0.5999 0.4 0.0001 0.3333333 0.3333333 0.3333333 0.15 0.83 0.02 0.3333333 0.3333333 0.3333333 0.5999 0.4 0.0001 0.3333333 0.3333333 0.3333333 0.5999 0.4 0.0001 0.3333333 0.3333333 0.3333333 0.15 0.83 0.02 0.3333333 0.3333333 0.3333333 0.5999 0.4 0.0001 0.3333333 0.3333333 0.3333333 0.5999 0.4 0.0001 0.3333333 0.3333333 0.3333333 0.5999 0.4 0.0001 0.3333333 0.3333333 0.3333333 0.1 0.75 0.15 0.3333333 0.3333333 0.3333333 0.1 0.75 0.15 0.3333333 0.3333333 0.3333333 0.1 0.75 0.15 0.3333333 0.3333333 0.3333333 0.1 0.75 0.15 0.3333333 0.3333333 0.3333333 0.1 0.75 0.15 0.3333333 0.3333333 0.3333333 0.5999 0.4 0.0001 0.3333333 0.3333333 0.3333333 0.5999 0.4 0.0001 0.3333333 0.3333333 0.3333333 0.5999 0.4 0.0001 0.3333333 0.3333333 0.3333333 0.5999 0.4 0.0001 0.3333333 0.3333333 0.3333333 0.5999 0.4 0.0001 0.3333333 0.3333333 0.3333333 0.5999 0.4 0.0001 0.3333333 0.3333333 0.3333333 0.5999 0.4 0.0001 0.3333333 0.3333333 0.3333333 0.5999 0.4 0.0001 0.3333333 0.3333333 0.3333333 0.5999 0.4 0.0001 0.3333333 0.3333333 0.3333333 0.5999 0.4 0.0001 0.3333333 0.3333333 0.3333333 0.5999 0.4 0.0001 0.3333333 0.3333333 0.3333333 0.5999 0.4 0.0001 0.3333333 0.3333333 0.3333333 0.5999 0.4 0.0001 0.3333333 0.3333333 0.3333333 0.35 0.63 0.02 0.3333333 0.3333333 0.3333333 0.2 0.75 0.05 0.3333333 0.3333333 0.3333333 0.5999 0.4 0.0001 0.3333333 0.3333333 0.3333333 0.5999 0.4 0.0001 0.3333333 0.3333333 0.3333333 0.5999 0.4 0.0001 0.3333333 0.3333333 0.3333333 0.5999 0.4 0.0001 0.3333333 0.3333333 0.3333333 0.5999 0.4 0.0001 0.3333333 0.3333333 0.3333333 0.5999 0.4 0.0001 0.3333333 0.3333333 0.3333333 0.5999 0.4 0.0001 0.3333333 0.3333333 0.3333333 0.94990501 0.049995 9.999e-05 0.01 0.89 0.1 0.5999 0.4 0.0001 0.3333333 0.3333333 0.3333333 0.5999 0.4 0.0001 0.3333333 0.3333333 0.3333333 0.5999 0.4 0.0001 0.3333333 0.3333333 0.3333333 0.5999 0.4 0.0001 0.3333333 0.3333333 0.3333333 0.5999 0.4 0.0001 0.3333333 0.3333333 0.3333333 0.05 0.9 0.05 0.3333333 0.3333333 0.3333333 0.5999 0.4 0.0001 0.3333333 0.3333333 0.3333333 0.35 0.63 0.02 0.3333333 0.3333333 0.3333333 </TABLE>
    </DEFINITION>
    <DEFINITION>
      <FOR>F17</FOR>
      <GIVEN>Fault</GIVEN>
      <TABLE>0.65 0.34 0.01 0.7 0.28 0.02 0.98 0.02 0.0 0.05 0.85 0.1 0.85 0.14 0.01 0.98 0.02 0.0 0.98 0.02 0.0 0.98 0.02 0.0 0.0 0.7 0.3 0.98 0.02 0.0 0.05 0.85 0.1 0.05 0.9 0.05 0.00990099 0.79207921 0.1980198 0.98 0.02 0.0 0.89 0.1 0.01 0.72 0.25 0.03 0.98 0.02 0.0 0.0 0.02 0.98 0.98 0.02 0.0 0.98 0.02 0.0 0.0 0.7 0.3 0.0 0.6 0.4 0.05 0.9 0.05 0.05 0.85 0.1 0.00990099 0.79207921 0.1980198 0.02 0.6 0.38 0.02 0.6 0.38 0.95 0.049 0.001 0.95 0.049 0.001 0.95 0.049 0.001 0.2 0.3 0.5 0.3 0.6 0.1 0.98 0.02 0.0 0.98 0.02 0.0 0.98 0.02 0.0 0.98 0.02 0.0 0.98 0.02 0.0 0.98 0.02 0.0 0.98 0.02 0.0 0.98 0.02 0.0 0.98 0.02 0.0 0.98 0.02 0.0 0.98 0.02 0.0 0.98 0.02 0.0 0.98 0.02 0.0 0.7 0.28 0.02 0.89 0.1 0.01 0.98 0.02 0.0 0.98 0.02 0.0 0.98 0.02 0.0 0.98 0.02 0.0 0.98 0.02 0.0 0.98 0.02 0.0 0.85 0.14 0.01 0.98 0.02 0.0 0.98 0.02 0.0 0.98 0.02 0.0 0.98 0.02 0.0 0.98 0.02 0.0 0.98 0.02 0.0 0.3 0.6 0.1 0.65 0.34 0.01 0.98 0.02 0.0 </TABLE>
    </DEFINITION>
    <DEFINITION>
      <FOR>F18</FOR>
      <GIVEN>Fault</GIVEN>
      <GIVEN>F97</GIVEN>
      <GIVEN>F17</GIVEN>
      <TABLE>1.0 0.0 0.0 0.0 1.0 0.0 0.0 0.0 1.0 0.0 0.0 0.0 1.0 0.0 0.0 0.0 0.0 0.999 0.001 0.0 0.0 0.998 0.002 0.0 1.0 0.0 0.0 0.0 1.0 0.0 0.0 0.0 1.0 0.0 0.0 0.0 1.0 0.0 0.0 0.0 0.0 0.999 0.001 0.0 0.0 0.998 0.002 0.0 1.0 0.0 0.0 0.0 1.0 0.0 0.0 0.0 1.0 0.0 0.0 0.0 1.0 0.0 0.0 0.0 0.0 0.999 0.001 0.0 0.25 0.25 0.25 0.25 1.0 0.0 0.0 0.0 1.0 0.0 0.0 0.0 1.0 0.0 0.0 0.0 1.0 0.0 0.0 0.0 0.0 0.99497992 0.00502008 0.0 0.0 0.991 0.009 0.0 1.0 0.0 0.0 0.0 1.0 0.0 0.0 0.0 1.0 0.0 0.0 0.0 1.0 0.0 0.0 0.0 0.0 0.999 0.001 0.0 0.0 0.998 0.002 0.0 1.0 0.0 0.0 0.0 1.0 0.0 0.0 0.0 1.0 0.0 0.0 0.0 1.0 0.0 0.0 0.0 0.0 0.999 0.001 0.0 0.25 0.25 0.25 0.25 1.0 0.0 0.0 0.0 1.0 0.0 0.0 0.0 1.0 0.0 0.0 0.0 1.0 0.0 0.0 0.0 0.0 0.999 0.001 0.0 0.25 0.25 0.25 0.25 1.0 0.0 0.0 0.0 1.0 0.0 0.0 0.0 1.0 0.0 0.0 0.0 1.0 0.0 0.0 0.0 0.0 0.999 0.001 0.0 0.25 0.25 0.25 0.25 1.0 0.0 0.0 0.0 1.0 0.0 0.0 0.0 1.0 0.0 0.0 0.0 1.0 0.0 0.0 0.0 0.0 0.8991009 0.0999001 0.000999 0.0 0.84577115 0.14925373 0.00497512 1.0 0.0 0.0 0.0 1.0 0.0 0.0 0.0 1.0 0.0 0.0 0.0 1.0 0.0 0.0 0.0 0.0 0.999 0.001 0.0 0.25 0.25 0.25 0.25 1.0 0.0 0.0 0.0 1.0 0.0 0.0 0.0 1.0 0.0 0.0 0.0 1.0 0.0 0.0 0.0 0.0 0.99497992 0.00502008 0.0 0.0 0.991 0.009 0.0 1.0 0.0 0.0 0.0 1.0 0.0 0.0 0.0 1.0 0.0 0.0 0.0 1.0 0.0 0.0 0.0 0.0 0.999 0.001 0.0 0.0 0.998 0.002 0.0 1.0 0.0 0.0 0.0 1.0 0.0 0.0 0.0 1.0 0.0 0.0 0.0 1.0 0.0 0.0 0.0 0.0 0.999 0.001 0.0 0.0 0.998 0.002 0.0 1.0 0.0 0.0 0.0 1.0 0.0 0.0 0.0 1.0 0.0 0.0 0.0 1.0 0.0 0.0 0.0 0.0 0.999 0.001 0.0 0.25 0.25 0.25 0.25 1.0 0.0 0.0 0.0 1.0 0.0 0.0 0.0 1.0 0.0 0.0 0.0 1.0 0.0 0.0 0.0 0.0 0.99497992 0.00502008 0.0 0.0 0.991 0.009 0.0 1.0 0.0 0.0 0.0 1.0 0.0 0.0 0.0 1.0 0.0 0.0 0.0 1.0 0.0 0.0 0.0 0.0 0.99497992 0.00502008 0.0 0.0 0.991 0.009 0.0 1.0 0.0 0.0 0.0 1.0 0.0 0.0 0.0 1.0 0.0 0.0 0.0 1.0 0.0 0.0 0.0 0.0 0.999 0.001 0.0 0.25 0.25 0.25 0.25 1.0 0.0 0.0 0.0 1.0 0.0 0.0 0.0 1.0 0.0 0.0 0.0 1.0 0.0 0.0 0.0 0.0 0.999 0.001 0.0 0.25 0.25 0.25 0.25 1.0 0.0 0.0 0.0 1.0 0.0 0.0 0.0 1.0 0.0 0.0 0.0 1.0 0.0 0.0 0.0 0.0 0.999 0.001 0.0 0.25 0.25 0.25 0.25 1.0 0.0 0.0 0.0 1.0 0.0 0.0 0.0 1.0 0.0 0.0 0.0 1.0 0.0 0.0 0.0 0.0 0.999 0.001 0.0 0.25 0.25 0.25 0.25 1.0 0.0 0.0 0.0 1.0 0.0 0.0 0.0 1.0 0.0 0.0 0.0 1.0 0.0 0.0 0.0 0.0 0.8991009 0.0999001 0.000999 0.0 0.84577115 0.14925373 0.00497512 1.0 0.0 0.0 0.0 1.0 0.0 0.0 0.0 1.0 0.0 0.0 0.0 1.0 0.0 0.0 0.0 0.0 0.0 0.8 0.2 0.0 0.0 0.4 0.6 1.0 0.0 0.0 0.0 1.0 0.0 0.0 0.0 1.0 0.0 0.0 0.0 1.0 0.0 0.0 0.0 0.0 0.999 0.001 0.0 0.0 0.998 0.002 0.0 1.0 0.0 0.0 0.0 1.0 0.0 0.0 0.0 1.0 0.0 0.0 0.0 1.0 0.0 0.0 0.0 0.0 0.99497992 0.00502008 0.0 0.0 0.991 0.009 0.0 1.0 0.0 0.0 0.0 1.0 0.0 0.0 0.0 1.0 0.0 0.0 0.0 1.0 0.0 0.0 0.0 0.0 0.999 0.001 0.0 0.0 0.998 0.002 0.0 1.0 0.0 0.0 0.0 1.0 0.0 0.0 0.0 1.0 0.0 0.0 0.0 1.0 0.0 0.0 0.0 0.0 0.99497992 0.00502008 0.0 0.0 0.991 0.009 0.0 1.0 0.0 0.0 0.0 1.0 0.0 0.0 0.0 1.0 0.0 0.0 0.0 1.0 0.0 0.0 0.0 0.0 0.99497992 0.00502008 0.0 0.0 0.991 0.009 0.0 1.0 0.0 0.0 0.0 1.0 0.0 0.0 0.0 1.0 0.0 0.0 0.0 1.0 0.0 0.0 0.0 0.0 0.999 0.001 0.0 0.0 0.998 0.002 0.0 1.0 0.0 0.0 0.0 1.0 0.0 0.0 0.0 1.0 0.0 0.0 0.0 1.0 0.0 0.0 0.0 0.0 0.999 0.001 0.0 0.0 0.998 0.002 0.0 1.0 0.0 0.0 0.0 1.0 0.0 0.0 0.0 1.0 0.0 0.0 0.0 1.0 0.0 0.0 0.0 0.0 0.999 0.001 0.0 0.0 0.998 0.002 0.0 1.0 0.0 0.0 0.0 1.0 0.0 0.0 0.0 1.0 0.0 0.0 0.0 1.0 0.0 0.0 0.0 0.0 0.99 0.01 0.0 0.0 0.98 0.02 0.0 1.0 0.0 0.0 0.0 1.0 0.0 0.0 0.0 1.0 0.0 0.0 0.0 1.0 0.0 0.0 0.0 0.0 0.999 0.001 0.0 0.0 0.998 0.002 0.0 1.0 0.0 0.0 0.0 1.0 0.0 0.0 0.0 1.0 0.0 0.0 0.0 1.0 0.0 0.0 0.0 0.0 0.999 0.001 0.0 0.25 0.25 0.25 0.25 1.0 0.0 0.0 0.0 1.0 0.0 0.0 0.0 1.0 0.0 0.0 0.0 1.0 0.0 0.0 0.0 0.0 0.999 0.001 0.0 0.25 0.25 0.25 0.25 1.0 0.0 0.0 0.0 1.0 0.0 0.0 0.0 1.0 0.0 0.0 0.0 1.0 0.0 0.0 0.0 0.0 0.999 0.001 0.0 0.25 0.25 0.25 0.25 1.0 0.0 0.0 0.0 1.0 0.0 0.0 0.0 1.0 0.0 0.0 0.0 1.0 0.0 0.0 0.0 0.0 0.999 0.001 0.0 0.25 0.25 0.25 0.25 1.0 0.0 0.0 0.0 1.0 0.0 0.0 0.0 1.0 0.0 0.0 0.0 1.0 0.0 0.0 0.0 0.0 0.999 0.001 0.0 0.25 0.25 0.25 0.25 1.0 0.0 0.0 0.0 1.0 0.0 0.0 0.0 1.0 0.0 0.0 0.0 1.0 0.0 0.0 0.0 0.0 0.999 0.001 0.0 0.25 0.25 0.25 0.25 1.0 0.0 0.0 0.0 1.0 0.0 0.0 0.0 1.0 0.0 0.0 0.0 1.0 0.0 0.0 0.0 0.0 0.999 0.001 0.0 0.25 0.25 0.25 0.25 1.0 0.0 0.0 0.0 1.0 0.0 0.0 0.0 1.0 0.0 0.0 0.0 1.0 0.0 0.0 0.0 0.0 0.999 0.001 0.0 0.25 0.25 0.25 0.25 1.0 0.0 0.0 0.0 1.0 0.0 0.0 0.0 1.0 0.0 0.0 0.0 1.0 0.0 0.0 0.0 0.0 0.999 0.001 0.0 0.25 0.25 0.25 0.25 1.0 0.0 0.0 0.0 1.0 0.0 0.0 0.0 1.0 0.0 0.0 0.0 1.0 0.0 0.0 0.0 0.0 0.999 0.001 0.0 0.25 0.25 0.25 0.25 1.0 0.0 0.0 0.0 1.0 0.0 0.0 0.0 1.0 0.0 0.0 0.0 1.0 0.0 0.0 0.0 0.0 0.999 0.001 0.0 0.25 0.25 0.25 0.25 1.0 0.0 0.0 0.0 1.0 0.0 0.0 0.0 1.0 0.0 0.0 0.0 1.0 0.0 0.0 0.0 0.0 0.999 0.001 0.0 0.25 0.25 0.25 0.25 1.0 0.0 0.0 0.0 1.0 0.0 0.0 0.0 1.0 0.0 0.0 0.0 1.0 0.0 0.0 0.0 0.0 0.999 0.001 0.0 0.25 0.25 0.25 0.25 1.0 0.0 0.0 0.0 1.0 0.0 0.0 0.0 1.0 0.0 0.0 0.0 1.0 0.0 0.0 0.0 0.0 0.999 0.001 0.0 0.0 0.998 0.002 0.0 1.0 0.0 0.0 0.0 1.0 0.0 0.0 0.0 1.0 0.0 0.0 0.0 1.0 0.0 0.0 0.0 0.0 0.999 0.001 0.0 0.0 0.998 0.002 0.0 1.0 0.0 0.0 0.0 1.0 0.0 0.0 0.0 1.0 0.0 0.0 0.0 1.0 0.0 0.0 0.0 0.0 0.999 0.001 0.0 0.25 0.25 0.25 0.25 1.0 0.0 0.0 0.0 1.0 0.0 0.0 0.0 1.0 0.0 0.0 0.0 1.0 0.0 0.0 0.0 0.0 0.999 0.001 0.0 0.25 0.25 0.25 0.25 1.0 0.0 0.0 0.0 1.0 0.0 0.0 0.0 1.0 0.0 0.0 0.0 1.0 0.0 0.0 0.0 0.0 0.999 0.001 0.0 0.25 0.25 0.25 0.25 1.0 0.0 0.0 0.0 1.0 0.0 0.0 0.0 1.0 0.0 0.0 0.0 1.0 0.0 0.0 0.0 0.0 0.999 0.001 0.0 0.25 0.25 0.25 0.25 1.0 0.0 0.0 0.0 1.0 0.0 0.0 0.0 1.0 0.0 0.0 0.0 1.0 0.0 0.0 0.0 0.0 0.999 0.001 0.0 0.25 0.25 0.25 0.25 1.0 0.0 0.0 0.0 1.0 0.0 0.0 0.0 1.0 0.0 0.0 0.0 1.0 0.0 0.0 0.0 0.0 0.999 0.001 0.0 0.25 0.25 0.25 0.25 1.0 0.0 0.0 0.0 1.0 0.0 0.0 0.0 1.0 0.0 0.0 0.0 1.0 0.0 0.0 0.0 0.0 0.999 0.001 0.0 0.0 0.998 0.002 0.0 1.0 0.0 0.0 0.0 1.0 0.0 0.0 0.0 1.0 0.0 0.0 0.0 1.0 0.0 0.0 0.0 0.0 0.999 0.001 0.0 0.25 0.25 0.25 0.25 1.0 0.0 0.0 0.0 1.0 0.0 0.0 0.0 1.0 0.0 0.0 0.0 1.0 0.0 0.0 0.0 0.0 0.999 0.001 0.0 0.25 0.25 0.25 0.25 1.0 0.0 0.0 0.0 1.0 0.0 0.0 0.0 1.0 0.0 0.0 0.0 1.0 0.0 0.0 0.0 0.0 0.999 0.001 0.0 0.25 0.25 0.25 0.25 1.0 0.0 0.0 0.0 1.0 0.0 0.0 0.0 1.0 0.0 0.0 0.0 1.0 0.0 0.0 0.0 0.0 0.999 0.001 0.0 0.25 0.25 0.25 0.25 1.0 0.0 0.0 0.0 1.0 0.0 0.0 0.0 1.0 0.0 0.0 0.0 1.0 0.0 0.0 0.0 0.0 0.999 0.001 0.0 0.25 0.25 0.25 0.25 1.0 0.0 0.0 0.0 1.0 0.0 0.0 0.0 1.0 0.0 0.0 0.0 1.0 0.0 0.0 0.0 0.0 0.999 0.001 0.0 0.25 0.25 0.25 0.25 1.0 0.0 0.0 0.0 1.0 0.0 0.0 0.0 1.0 0.0 0.0 0.0 1.0 0.0 0.0 0.0 0.0 0.999 0.001 0.0 0.0 0.998 0.002 0.0 1.0 0.0 0.0 0.0 1.0 0.0 0.0 0.0 1.0 0.0 0.0 0.0 1.0 0.0 0.0 0.0 0.0 0.999 0.001 0.0 0.0 0.998 0.002 0.0 1.0 0.0 0.0 0.0 1.0 0.0 0.0 0.0 1.0 0.0 0.0 0.0 1.0 0.0 0.0 0.0 0.0 0.999 0.001 0.0 0.25 0.25 0.25 0.25 </TABLE>
    </DEFINITION>
    <DEFINITION>
      <FOR>F19</FOR>
      <GIVEN>Fault</GIVEN>
      <TABLE>0.375 0.59375 0.03125 0.02 0.85 0.13 0.99 0.01 0.0 0.02 0.93 0.05 0.09090909 0.86363636 0.04545455 0.99 0.01 0.0 0.99 0.01 0.0 0.99 0.01 0.0 0.02 0.96 0.02 0.99 0.01 0.0 0.8991009 0.0999001 0.000999 0.01 0.89 0.1 0.01 0.8 0.19 0.99 0.01 0.0 0.04761905 0.9047619 0.04761905 0.04761905 0.9047619 0.04761905 0.99 0.01 0.0 0.99 0.01 0.0 0.99 0.01 0.0 0.99 0.01 0.0 0.02 0.96 0.02 0.8991009 0.0999001 0.000999 0.01 0.89 0.1 0.8991009 0.0999001 0.000999 0.01 0.8 0.19 0.02 0.7 0.28 0.02 0.7 0.28 0.7992008 0.1998002 0.000999 0.7992008 0.1998002 0.000999 0.7992008 0.1998002 0.000999 0.1 0.89 0.01 0.2 0.79 0.01 0.99 0.01 0.0 0.99 0.01 0.0 0.99 0.01 0.0 0.99 0.01 0.0 0.99 0.01 0.0 0.99 0.01 0.0 0.99 0.01 0.0 0.99 0.01 0.0 0.99 0.01 0.0 0.99 0.01 0.0 0.99 0.01 0.0 0.99 0.01 0.0 0.99 0.01 0.0 0.02 0.8 0.18 0.02 0.85 0.13 0.99 0.01 0.0 0.99 0.01 0.0 0.99 0.01 0.0 0.99 0.01 0.0 0.99 0.01 0.0 0.99 0.01 0.0 0.09090909 0.86363636 0.04545455 0.99 0.01 0.0 0.99 0.01 0.0 0.99 0.01 0.0 0.99 0.01 0.0 0.99 0.01 0.0 0.99 0.01 0.0 0.2 0.79 0.01 0.375 0.59375 0.03125 0.02 0.8 0.18 </TABLE>
    </DEFINITION>
    <DEFINITION>
      <FOR>F2</FOR>
      <GIVEN>Fault</GIVEN>
      <GIVEN>F97</GIVEN>
      <TABLE>1.0 0.0 0.0 0.0 0.99 0.01 1.0 0.0 0.0 0.0 0.3 0.7 1.0 0.0 0.0 0.0 0.99 0.01 1.0 0.0 0.0 0.0 0.99 0.01 1.0 0.0 0.0 0.0 0.99 0.01 1.0 0.0 0.0 0.0 0.99 0.01 1.0 0.0 0.0 0.0 0.0 1.0 1.0 0.0 0.0 0.0 0.99 0.01 1.0 0.0 0.0 0.0 0.99 0.01 1.0 0.0 0.0 0.0 0.99 0.01 1.0 0.0 0.0 0.0 0.99 0.01 1.0 0.0 0.0 0.0 0.99 0.01 1.0 0.0 0.0 0.0 0.99 0.01 1.0 0.0 0.0 0.0 0.05 0.95 1.0 0.0 0.0 0.0 0.99 0.01 1.0 0.0 0.0 0.0 0.99 0.01 1.0 0.0 0.0 0.0 0.99 0.01 1.0 0.0 0.0 0.0 0.99 0.01 1.0 0.0 0.0 0.0 0.99 0.01 1.0 0.0 0.0 0.0 0.99 0.01 1.0 0.0 0.0 0.0 0.99 0.01 1.0 0.0 0.0 0.0 0.99 0.01 1.0 0.0 0.0 0.0 0.99 0.01 1.0 0.0 0.0 0.0 0.99 0.01 1.0 0.0 0.0 0.0 0.99 0.01 1.0 0.0 0.0 0.0 0.99 0.01 1.0 0.0 0.0 0.0 0.99 0.01 1.0 0.0 0.0 0.0 0.99 0.01 1.0 0.0 0.0 0.0 0.99 0.01 1.0 0.0 0.0 0.0 0.99 0.01 1.0 0.0 0.0 0.0 0.99 0.01 1.0 0.0 0.0 0.0 0.99 0.01 1.0 0.0 0.0 0.0 0.99 0.01 1.0 0.0 0.0 0.0 0.99 0.01 1.0 0.0 0.0 0.0 0.99999 1e-05 1.0 0.0 0.0 0.0 0.99999 1e-05 1.0 0.0 0.0 0.0 0.99999 1e-05 1.0 0.0 0.0 0.0 0.99999 1e-05 1.0 0.0 0.0 0.0 0.99 0.01 1.0 0.0 0.0 0.0 0.99 0.01 1.0 0.0 0.0 0.0 0.01 0.99 1.0 0.0 0.0 0.0 0.99 0.01 1.0 0.0 0.0 0.0 0.99 0.01 1.0 0.0 0.0 0.0 0.99 0.01 1.0 0.0 0.0 0.0 0.99 0.01 1.0 0.0 0.0 0.0 0.99 0.01 1.0 0.0 0.0 0.0 0.3 0.7 1.0 0.0 0.0 0.0 0.99 0.01 1.0 0.0 0.0 0.0 0.99 0.01 1.0 0.0 0.0 0.0 0.99 0.01 1.0 0.0 0.0 0.0 0.99 0.01 1.0 0.0 0.0 0.0 0.99 0.01 1.0 0.0 0.0 0.0 0.99 0.01 1.0 0.0 0.0 0.0 0.99 0.01 1.0 0.0 0.0 0.0 0.99 0.01 1.0 0.0 0.0 0.0 0.99 0.01 1.0 0.0 0.0 0.0 0.99 0.01 1.0 0.0 0.0 0.0 0.99 0.01 1.0 0.0 0.0 0.0 0.99 0.01 1.0 0.0 0.0 0.0 0.01 0.99 1.0 0.0 0.0 0.0 0.99 0.01 1.0 0.0 0.0 0.0 0.01 0.99 1.0 0.0 0.0 0.0 0.99 0.01 </TABLE>
    </DEFINITION>
    <DEFINITION>
      <FOR>F20</FOR>
      <GIVEN>Fault</GIVEN>
      <GIVEN>F41</GIVEN>
      <GIVEN>F44</GIVEN>
      <TABLE>1.0 0.0 0.0 0.0 1.0 0.0 0.0 0.0 0.9999 0.0001 0.0 0.0 0.9995 0.0005 0.0 0.0 1.0 0.0 0.0 0.0 1.0 0.0 0.0 0.0 0.9999 0.0001 0.0 0.0 0.9995 0.0005 0.0 0.0 1.0 0.0 0.0 0.0 1.0 0.0 0.0 0.0 0.9999 0.0001 0.0 0.0 0.9995 0.0005 0.0 0.0 1.0 0.0 0.0 0.0 1.0 0.0 0.0 0.0 0.99 0.01 0.0 0.0 0.99 0.01 0.0 0.0 1.0 0.0 0.0 0.0 1.0 0.0 0.0 0.0 0.9999 0.0001 0.0 0.0 0.9995 0.0005 0.0 0.0 1.0 0.0 0.0 0.0 1.0 0.0 0.0 0.0 0.9999 0.0001 0.0 0.0 0.9995 0.0005 0.0 0.0 1.0 0.0 0.0 0.0 1.0 0.0 0.0 0.0 0.9999 0.0001 0.0 0.0 0.9995 0.0005 0.0 0.0 1.0 0.0 0.0 0.0 1.0 0.0 0.0 0.0 0.9999 0.0001 0.0 0.0 0.9995 0.0005 0.0 0.0 1.0 0.0 0.0 0.0 1.0 0.0 0.0 0.0 0.9999 0.0001 0.0 0.0 0.9995 0.0005 0.0 0.0 1.0 0.0 0.0 0.0 1.0 0.0 0.0 0.0 0.9999 0.0001 0.0 0.0 0.9995 0.0005 0.0 0.0 0.25 0.25 0.25 0.25 0.25 0.25 0.25 0.25 0.99 0.01 0.0 0.0 0.99 0.01 0.0 0.0 1.0 0.0 0.0 0.0 1.0 0.0 0.0 0.0 0.9999 0.0001 0.0 0.0 0.9995 0.0005 0.0 0.0 1.0 0.0 0.0 0.0 1.0 0.0 0.0 0.0 0.9999 0.0001 0.0 0.0 0.9995 0.0005 0.0 0.0 1.0 0.0 0.0 0.0 1.0 0.0 0.0 0.0 0.9999 0.0001 0.0 0.0 0.9995 0.0005 0.0 0.0 1.0 0.0 0.0 0.0 1.0 0.0 0.0 0.0 0.99 0.01 0.0 0.0 0.99 0.01 0.0 0.0 1.0 0.0 0.0 0.0 1.0 0.0 0.0 0.0 0.99 0.01 0.0 0.0 0.99 0.01 0.0 0.0 1.0 0.0 0.0 0.0 1.0 0.0 0.0 0.0 0.9999 0.0001 0.0 0.0 0.9995 0.0005 0.0 0.0 1.0 0.0 0.0 0.0 1.0 0.0 0.0 0.0 0.9999 0.0001 0.0 0.0 0.9995 0.0005 0.0 0.0 1.0 0.0 0.0 0.0 1.0 0.0 0.0 0.0 0.9999 0.0001 0.0 0.0 0.9995 0.0005 0.0 0.0 1.0 0.0 0.0 0.0 1.0 0.0 0.0 0.0 0.9999 0.0001 0.0 0.0 0.9995 0.0005 0.0 0.0 1.0 0.0 0.0 0.0 1.0 0.0 0.0 0.0 0.9999 0.0001 0.0 0.0 0.9995 0.0005 0.0 0.0 1.0 0.0 0.0 0.0 1.0 0.0 0.0 0.0 0.9999 0.0001 0.0 0.0 0.9995 0.0005 0.0 0.0 1.0 0.0 0.0 0.0 1.0 0.0 0.0 0.0 0.9999 0.0001 0.0 0.0 0.9995 0.0005 0.0 0.0 0.25 0.25 0.25 0.25 0.25 0.25 0.25 0.25 0.99 0.01 0.0 0.0 0.99 0.01 0.0 0.0 1.0 0.0 0.0 0.0 1.0 0.0 0.0 0.0 0.9999 0.0001 0.0 0.0 0.9995 0.0005 0.0 0.0 1.0 0.0 0.0 0.0 1.0 0.0 0.0 0.0 0.9999 0.0001 0.0 0.0 0.9995 0.0005 0.0 0.0 1.0 0.0 0.0 0.0 1.0 0.0 0.0 0.0 0.9999 0.0001 0.0 0.0 0.9995 0.0005 0.0 0.0 1.0 0.0 0.0 0.0 1.0 0.0 0.0 0.0 0.9999 0.0001 0.0 0.0 0.9995 0.0005 0.0 0.0 1.0 0.0 0.0 0.0 1.0 0.0 0.0 0.0 0.9999 0.0001 0.0 0.0 0.9995 0.0005 0.0 0.0 1.0 0.0 0.0 0.0 1.0 0.0 0.0 0.0 0.9999 0.0001 0.0 0.0 0.9995 0.0005 0.0 0.0 1.0 0.0 0.0 0.0 1.0 0.0 0.0 0.0 0.9999 0.0001 0.0 0.0 0.9995 0.0005 0.0 0.0 1.0 0.0 0.0 0.0 1.0 0.0 0.0 0.0 0.9999 0.0001 0.0 0.0 0.9995 0.0005 0.0 0.0 1.0 0.0 0.0 0.0 1.0 0.0 0.0 0.0 0.9999 0.0001 0.0 0.0 0.9995 0.0005 0.0 0.0 1.0 0.0 0.0 0.0 1.0 0.0 0.0 0.0 0.9999 0.0001 0.0 0.0 0.9995 0.0005 0.0 0.0 1.0 0.0 0.0 0.0 1.0 0.0 0.0 0.0 0.9999 0.0001 0.0 0.0 0.9995 0.0005 0.0 0.0 1.0 0.0 0.0 0.0 1.0 0.0 0.0 0.0 0.9999 0.0001 0.0 0.0 0.9995 0.0005 0.0 0.0 1.0 0.0 0.0 0.0 1.0 0.0 0.0 0.0 0.9999 0.0001 0.0 0.0 0.9995 0.0005 0.0 0.0 1.0 0.0 0.0 0.0 1.0 0.0 0.0 0.0 0.9999 0.0001 0.0 0.0 0.9995 0.0005 0.0 0.0 1.0 0.0 0.0 0.0 1.0 0.0 0.0 0.0 0.9999 0.0001 0.0 0.0 0.9995 0.0005 0.0 0.0 1.0 0.0 0.0 0.0 1.0 0.0 0.0 0.0 0.9999 0.0001 0.0 0.0 0.9995 0.0005 0.0 0.0 1.0 0.0 0.0 0.0 1.0 0.0 0.0 0.0 0.9999 0.0001 0.0 0.0 0.9995 0.0005 0.0 0.0 1.0 0.0 0.0 0.0 1.0 0.0 0.0 0.0 0.9999 0.0001 0.0 0.0 0.9995 0.0005 0.0 0.0 1.0 0.0 0.0 0.0 1.0 0.0 0.0 0.0 0.9999 0.0001 0.0 0.0 0.9995 0.0005 0.0 0.0 0.25 0.25 0.25 0.25 0.25 0.25 0.25 0.25 0.95 0.05 0.0 0.0 0.95 0.05 0.0 0.0 0.25 0.25 0.25 0.25 0.25 0.25 0.25 0.25 0.9995 0.0005 0.0 0.0 0.9995 0.0005 0.0 0.0 0.25 0.25 0.25 0.25 0.25 0.25 0.25 0.25 0.93532339 0.04975124 0.00995025 0.00497512 0.91542289 0.05970149 0.0199005 0.00497512 0.25 0.25 0.25 0.25 0.25 0.25 0.25 0.25 0.0 0.05 0.5 0.45 0.0 0.05 0.45 0.5 1.0 0.0 0.0 0.0 1.0 0.0 0.0 0.0 0.9999 0.0001 0.0 0.0 0.9995 0.0005 0.0 0.0 1.0 0.0 0.0 0.0 1.0 0.0 0.0 0.0 0.9999 0.0001 0.0 0.0 0.9995 0.0005 0.0 0.0 1.0 0.0 0.0 0.0 1.0 0.0 0.0 0.0 0.9999 0.0001 0.0 0.0 0.9995 0.0005 0.0 0.0 0.25 0.25 0.25 0.25 0.25 0.25 0.25 0.25 0.93990601 0.049995 0.009999 9.999e-05 0.93990601 0.049995 0.009999 9.999e-05 0.25 0.25 0.25 0.25 0.25 0.25 0.25 0.25 0.9995 0.0005 0.0 0.0 0.9995 0.0005 0.0 0.0 1.0 0.0 0.0 0.0 1.0 0.0 0.0 0.0 0.9999 0.0001 0.0 0.0 0.9995 0.0005 0.0 0.0 1.0 0.0 0.0 0.0 1.0 0.0 0.0 0.0 0.9999 0.0001 0.0 0.0 0.9995 0.0005 0.0 0.0 1.0 0.0 0.0 0.0 1.0 0.0 0.0 0.0 0.9999 0.0001 0.0 0.0 0.9995 0.0005 0.0 0.0 1.0 0.0 0.0 0.0 1.0 0.0 0.0 0.0 0.9999 0.0001 0.0 0.0 0.9995 0.0005 0.0 0.0 1.0 0.0 0.0 0.0 1.0 0.0 0.0 0.0 0.9999 0.0001 0.0 0.0 0.9995 0.0005 0.0 0.0 1.0 0.0 0.0 0.0 1.0 0.0 0.0 0.0 0.9999 0.0001 0.0 0.0 0.9995 0.0005 0.0 0.0 1.0 0.0 0.0 0.0 1.0 0.0 0.0 0.0 0.9999 0.0001 0.0 0.0 0.9995 0.0005 0.0 0.0 1.0 0.0 0.0 0.0 1.0 0.0 0.0 0.0 0.9999 0.0001 0.0 0.0 0.9995 0.0005 0.0 0.0 1.0 0.0 0.0 0.0 1.0 0.0 0.0 0.0 0.9999 0.0001 0.0 0.0 0.9995 0.0005 0.0 0.0 1.0 0.0 0.0 0.0 1.0 0.0 0.0 0.0 0.9999 0.0001 0.0 0.0 0.9995 0.0005 0.0 0.0 0.25 0.25 0.25 0.25 0.25 0.25 0.25 0.25 0.92 0.05 0.01 0.02 0.9 0.06 0.02 0.02 </TABLE>
    </DEFINITION>
    <DEFINITION>
      <FOR>F21</FOR>
      <GIVEN>Fault</GIVEN>
      <GIVEN>F90</GIVEN>
      <TABLE>0.94905095 0.04995005 0.000999 0.94905095 0.04995005 0.000999 0.94905095 0.04995005 0.000999 0.94905095 0.04995005 0.000999 0.8 0.15 0.05 0.8 0.15 0.05 0.8 0.15 0.05 0.8 0.15 0.05 0.94905095 0.04995005 0.000999 0.94905095 0.04995005 0.000999 0.94905095 0.04995005 0.000999 0.94905095 0.04995005 0.000999 0.94905095 0.04995005 0.000999 0.94905095 0.04995005 0.000999 0.94905095 0.04995005 0.000999 0.94905095 0.04995005 0.000999 0.94905095 0.04995005 0.000999 0.94905095 0.04995005 0.000999 0.94905095 0.04995005 0.000999 0.94905095 0.04995005 0.000999 0.94905095 0.04995005 0.000999 0.94905095 0.04995005 0.000999 0.94905095 0.04995005 0.000999 0.94905095 0.04995005 0.000999 0.01 0.64 0.35 0.01 0.64 0.35 0.01 0.64 0.35 0.01 0.64 0.35 0.94905095 0.04995005 0.000999 0.94905095 0.04995005 0.000999 0.94905095 0.04995005 0.000999 0.94905095 0.04995005 0.000999 0.04761905 0.80952381 0.14285714 0.04761905 0.80952381 0.14285714 0.04761905 0.80952381 0.14285714 0.04761905 0.80952381 0.14285714 0.94905095 0.04995005 0.000999 0.94905095 0.04995005 0.000999 0.94905095 0.04995005 0.000999 0.94905095 0.04995005 0.000999 0.94905095 0.04995005 0.000999 0.94905095 0.04995005 0.000999 0.94905095 0.04995005 0.000999 0.94905095 0.04995005 0.000999 0.94905095 0.04995005 0.000999 0.94905095 0.04995005 0.000999 0.94905095 0.04995005 0.000999 0.94905095 0.04995005 0.000999 0.94905095 0.04995005 0.000999 0.94905095 0.04995005 0.000999 0.94905095 0.04995005 0.000999 0.94905095 0.04995005 0.000999 0.94905095 0.04995005 0.000999 0.94905095 0.04995005 0.000999 0.94905095 0.04995005 0.000999 0.94905095 0.04995005 0.000999 0.94905095 0.04995005 0.000999 0.94905095 0.04995005 0.000999 0.94905095 0.04995005 0.000999 0.94905095 0.04995005 0.000999 0.94905095 0.04995005 0.000999 0.94905095 0.04995005 0.000999 0.94905095 0.04995005 0.000999 0.94905095 0.04995005 0.000999 0.04761905 0.80952381 0.14285714 0.04761905 0.80952381 0.14285714 0.04761905 0.80952381 0.14285714 0.04761905 0.80952381 0.14285714 0.4 0.55 0.05 0.4 0.55 0.05 0.4 0.55 0.05 0.4 0.55 0.05 0.01 0.64 0.35 0.01 0.64 0.35 0.01 0.64 0.35 0.01 0.64 0.35 0.94905095 0.04995005 0.000999 0.94905095 0.04995005 0.000999 0.94905095 0.04995005 0.000999 0.94905095 0.04995005 0.000999 0.04761905 0.80952381 0.14285714 0.04761905 0.80952381 0.14285714 0.04761905 0.80952381 0.14285714 0.04761905 0.80952381 0.14285714 0.94905095 0.04995005 0.000999 0.94905095 0.04995005 0.000999 0.94905095 0.04995005 0.000999 0.94905095 0.04995005 0.000999 0.94905095 0.04995005 0.000999 0.94905095 0.04995005 0.000999 0.94905095 0.04995005 0.000999 0.94905095 0.04995005 0.000999 0.94905095 0.04995005 0.000999 0.94905095 0.04995005 0.000999 0.94905095 0.04995005 0.000999 0.94905095 0.04995005 0.000999 0.94905095 0.04995005 0.000999 0.94905095 0.04995005 0.000999 0.94905095 0.04995005 0.000999 0.94905095 0.04995005 0.000999 0.94905095 0.04995005 0.000999 0.94905095 0.04995005 0.000999 0.94905095 0.04995005 0.000999 0.94905095 0.04995005 0.000999 0.94905095 0.04995005 0.000999 0.94905095 0.04995005 0.000999 0.94905095 0.04995005 0.000999 0.94905095 0.04995005 0.000999 0.0 0.95 0.05 0.0 0.7 0.3 0.0 0.6 0.4 0.0 0.45 0.55 0.95 0.05 0.0 0.95 0.05 0.0 0.95 0.05 0.0 0.95 0.05 0.0 0.0 0.98 0.02 0.0 0.85 0.15 0.0 0.65 0.35 0.0 0.6 0.4 0.85 0.14 0.01 0.85 0.14 0.01 0.85 0.14 0.01 0.85 0.14 0.01 0.94905095 0.04995005 0.000999 0.94905095 0.04995005 0.000999 0.94905095 0.04995005 0.000999 0.94905095 0.04995005 0.000999 0.1 0.7 0.2 0.1 0.7 0.2 0.1 0.7 0.2 0.1 0.7 0.2 0.94905095 0.04995005 0.000999 0.94905095 0.04995005 0.000999 0.94905095 0.04995005 0.000999 0.94905095 0.04995005 0.000999 0.94905095 0.04995005 0.000999 0.94905095 0.04995005 0.000999 0.94905095 0.04995005 0.000999 0.94905095 0.04995005 0.000999 0.94905095 0.04995005 0.000999 0.94905095 0.04995005 0.000999 0.94905095 0.04995005 0.000999 0.94905095 0.04995005 0.000999 0.94905095 0.04995005 0.000999 0.94905095 0.04995005 0.000999 0.94905095 0.04995005 0.000999 0.94905095 0.04995005 0.000999 0.94905095 0.04995005 0.000999 0.94905095 0.04995005 0.000999 0.94905095 0.04995005 0.000999 0.94905095 0.04995005 0.000999 0.94905095 0.04995005 0.000999 0.94905095 0.04995005 0.000999 0.94905095 0.04995005 0.000999 0.94905095 0.04995005 0.000999 0.94905095 0.04995005 0.000999 0.94905095 0.04995005 0.000999 0.94905095 0.04995005 0.000999 0.94905095 0.04995005 0.000999 0.94905095 0.04995005 0.000999 0.94905095 0.04995005 0.000999 0.94905095 0.04995005 0.000999 0.94905095 0.04995005 0.000999 0.8 0.15 0.05 0.8 0.15 0.05 0.8 0.15 0.05 0.8 0.15 0.05 0.8 0.15 0.05 0.8 0.15 0.05 0.8 0.15 0.05 0.8 0.15 0.05 0.8 0.15 0.05 0.8 0.15 0.05 0.8 0.15 0.05 0.8 0.15 0.05 0.94905095 0.04995005 0.000999 0.94905095 0.04995005 0.000999 0.94905095 0.04995005 0.000999 0.94905095 0.04995005 0.000999 0.15 0.75 0.1 0.15 0.75 0.1 0.15 0.75 0.1 0.15 0.75 0.1 0.94905095 0.04995005 0.000999 0.94905095 0.04995005 0.000999 0.94905095 0.04995005 0.000999 0.94905095 0.04995005 0.000999 0.94905095 0.04995005 0.000999 0.94905095 0.04995005 0.000999 0.94905095 0.04995005 0.000999 0.94905095 0.04995005 0.000999 0.94905095 0.04995005 0.000999 0.94905095 0.04995005 0.000999 0.94905095 0.04995005 0.000999 0.94905095 0.04995005 0.000999 0.94905095 0.04995005 0.000999 0.94905095 0.04995005 0.000999 0.94905095 0.04995005 0.000999 0.94905095 0.04995005 0.000999 0.94905095 0.04995005 0.000999 0.94905095 0.04995005 0.000999 0.94905095 0.04995005 0.000999 0.94905095 0.04995005 0.000999 0.94905095 0.04995005 0.000999 0.94905095 0.04995005 0.000999 0.94905095 0.04995005 0.000999 0.94905095 0.04995005 0.000999 0.94905095 0.04995005 0.000999 0.94905095 0.04995005 0.000999 0.94905095 0.04995005 0.000999 0.94905095 0.04995005 0.000999 0.94905095 0.04995005 0.000999 0.94905095 0.04995005 0.000999 0.94905095 0.04995005 0.000999 0.94905095 0.04995005 0.000999 0.94905095 0.04995005 0.000999 0.94905095 0.04995005 0.000999 0.94905095 0.04995005 0.000999 0.94905095 0.04995005 0.000999 0.94905095 0.04995005 0.000999 0.94905095 0.04995005 0.000999 0.94905095 0.04995005 0.000999 0.94905095 0.04995005 0.000999 0.94905095 0.04995005 0.000999 0.94905095 0.04995005 0.000999 0.94905095 0.04995005 0.000999 0.94905095 0.04995005 0.000999 0.94905095 0.04995005 0.000999 0.94905095 0.04995005 0.000999 0.94905095 0.04995005 0.000999 0.94905095 0.04995005 0.000999 0.94905095 0.04995005 0.000999 0.94905095 0.04995005 0.000999 0.94905095 0.04995005 0.000999 0.94905095 0.04995005 0.000999 0.94905095 0.04995005 0.000999 0.94905095 0.04995005 0.000999 0.94905095 0.04995005 0.000999 0.94905095 0.04995005 0.000999 0.0952381 0.7619048 0.1428571 0.0952381 0.7619048 0.1428571 0.0952381 0.7619048 0.1428571 0.0952381 0.7619048 0.1428571 0.94905095 0.04995005 0.000999 0.94905095 0.04995005 0.000999 0.94905095 0.04995005 0.000999 0.94905095 0.04995005 0.000999 0.15 0.75 0.1 0.15 0.75 0.1 0.15 0.75 0.1 0.15 0.75 0.1 </TABLE>
    </DEFINITION>
    <DEFINITION>
      <FOR>F22</FOR>
      <GIVEN>Fault</GIVEN>
      <GIVEN>F21</GIVEN>
